{
  "type": "LSTM",
  "options": {
    "inputSize": 25,
    "inputRange": 25,
    "hiddenLayers": [
      20,
      20
    ],
    "outputSize": 25,
    "decayRate": 0.999,
    "smoothEps": 1e-8,
    "regc": 0.000001,
    "clipval": 5,
    "maxPredictionLength": 100,
    "dataFormatter": {
      "indexTable": {
        "s": 0,
        "i": 1,
        "n": 2,
        "o": 3,
        " ": 4,
        "k": 5,
        "a": 6,
        "C": 7,
        "e": 8,
        "B": 9,
        "t": 10,
        "h": 11,
        "l": 12,
        "b": 13,
        "m": 14,
        "u": 15,
        "g": 16,
        "r": 17,
        "w": 18,
        "p": 19,
        ",": 20,
        "d": 21,
        "stop-input": 22,
        "start-output": 23,
        "unrecognized": 24
      },
      "characterTable": {
        "0": "s",
        "1": "i",
        "2": "n",
        "3": "o",
        "4": " ",
        "5": "k",
        "6": "a",
        "7": "C",
        "8": "e",
        "9": "B",
        "10": "t",
        "11": "h",
        "12": "l",
        "13": "b",
        "14": "m",
        "15": "u",
        "16": "g",
        "17": "r",
        "18": "w",
        "19": "p",
        "20": ",",
        "21": "d",
        "22": null,
        "23": null,
        "24": null
      },
      "values": [
        {
          "input": "sino ka",
          "output": "ako si Cookie Bot"
        },
        {
          "input": "hello",
          "output": "baket"
        },
        {
          "input": "kamusta ka",
          "output": "is akong robot na wlang emotion pero, maganda naman ang aking araw"
        }
      ],
      "characters": [
        "s",
        "i",
        "n",
        "o",
        " ",
        "k",
        "a",
        "C",
        "e",
        "B",
        "t",
        "h",
        "l",
        "b",
        "m",
        "u",
        "g",
        "r",
        "w",
        "p",
        ",",
        "d",
        "stop-input",
        "start-output",
        "unrecognized"
      ],
      "specialIndexes": [
        22,
        23,
        24
      ]
    }
  },
  "trainOpts": {
    "iterations": 20000,
    "errorThresh": 0.005,
    "log": false,
    "logPeriod": 10,
    "learningRate": 0.01,
    "callbackPeriod": 10,
    "timeout": "Infinity"
  },
  "input": {
    "rows": 26,
    "columns": 25,
    "weights": [
      0.5209226608276367,
      1.037815809249878,
      0.8328965306282043,
      1.7058714628219604,
      1.8225786685943604,
      0.6309598684310913,
      -2.13087797164917,
      0.4276960492134094,
      -0.8729932904243469,
      0.6877556443214417,
      -1.9622687101364136,
      -1.9350371360778809,
      -1.9524072408676147,
      -2.2967305183410645,
      0.4527333974838257,
      -0.5876360535621643,
      -3.19105863571167,
      0.30430033802986145,
      -0.3761872351169586,
      1.0029863119125366,
      0.6121547818183899,
      0.5142271518707275,
      0.0029888919088989496,
      -0.18005044758319855,
      -4.67697811126709,
      1.6456505060195923,
      1.0991021394729614,
      2.6647655963897705,
      1.1185451745986938,
      -0.5513691306114197,
      -0.09708285331726074,
      2.098060131072998,
      -0.05469493567943573,
      -0.04913675785064697,
      -0.20424887537956238,
      0.5242442488670349,
      -2.278369188308716,
      0.4279853403568268,
      -0.5645334124565125,
      -3.0680158138275146,
      -1.0569403171539307,
      1.7898061275482178,
      -2.116101026535034,
      2.8551852703094482,
      0.6754289865493774,
      2.4371469020843506,
      -0.060924846678972244,
      -1.412067174911499,
      1.1814721822738647,
      -0.8353719115257263,
      -0.39562883973121643,
      1.7372339963912964,
      2.532348394393921,
      0.8963375687599182,
      1.4967117309570312,
      3.230093479156494,
      -1.4355038404464722,
      1.1648378372192383,
      -3.1029975414276123,
      0.6128279566764832,
      -0.8018766641616821,
      -2.3924171924591064,
      -4.16923713684082,
      -0.7148740291595459,
      -3.1318352222442627,
      1.3081809282302856,
      -3.6964352130889893,
      -2.8250532150268555,
      3.4263598918914795,
      0.5338888764381409,
      -0.6999406218528748,
      -0.4857906699180603,
      -2.229340076446533,
      -0.40678349137306213,
      -1.5892832279205322,
      0.9099043607711792,
      2.4923806190490723,
      -2.085365056991577,
      -0.7404260039329529,
      0.5769081115722656,
      -0.6284723281860352,
      0.8225611448287964,
      -0.23853157460689545,
      -0.2556029260158539,
      -1.6973435878753662,
      0.33603590726852417,
      1.4866665601730347,
      -0.8217499256134033,
      -1.809531331062317,
      1.378492832183838,
      1.1974126100540161,
      -3.1307013034820557,
      -4.97747802734375,
      -2.433145761489868,
      4.146727085113525,
      -3.0041699409484863,
      -0.6142463088035583,
      0.6712015271186829,
      -0.44264161586761475,
      -0.06946045160293579,
      0.752414882183075,
      -1.88454270362854,
      1.679308533668518,
      -0.01588268205523491,
      -1.4947446584701538,
      -0.2971544563770294,
      -1.8001694679260254,
      1.48482084274292,
      -0.7115727066993713,
      2.0141491889953613,
      1.430099368095398,
      -1.1087793111801147,
      0.5203582048416138,
      -0.8472530245780945,
      1.332275152206421,
      0.6744400262832642,
      0.02297547459602356,
      0.17492933571338654,
      -1.223303198814392,
      -0.07457032799720764,
      0.06735163927078247,
      -1.4052238464355469,
      -1.1334561109542847,
      -0.5954632759094238,
      -0.18074831366539001,
      0.5948278903961182,
      1.2121970653533936,
      -0.8302260041236877,
      0.6666281223297119,
      -1.3718534708023071,
      7.087915897369385,
      -0.08430697023868561,
      -0.7793700695037842,
      1.4012633562088013,
      -0.41415804624557495,
      3.1188442707061768,
      2.4328086376190186,
      0.3688637316226959,
      0.06356646865606308,
      0.3966946005821228,
      0.33782294392585754,
      1.7543631792068481,
      1.4534660577774048,
      -0.7151132822036743,
      -1.429394006729126,
      -0.06390306353569031,
      -0.039221782237291336,
      -1.3112232685089111,
      -0.38694190979003906,
      1.0925854444503784,
      0.1733701080083847,
      -1.9102554321289062,
      -7.366772174835205,
      1.4519944190979004,
      0.07837948203086853,
      -0.15526722371578217,
      1.309631586074829,
      -1.6398874521255493,
      0.547123372554779,
      0.31756365299224854,
      -2.628981351852417,
      -1.2988626956939697,
      0.553645133972168,
      -1.5010030269622803,
      6.493738174438477,
      -0.2521168887615204,
      -0.7247461676597595,
      -1.5238652229309082,
      -1.7638424634933472,
      -0.48053041100502014,
      0.3116553723812103,
      2.3035709857940674,
      10.282402992248535,
      0.718003511428833,
      0.7658423185348511,
      0.06471724808216095,
      -0.30384382605552673,
      -0.3703608512878418,
      0.5921370983123779,
      -0.6222216486930847,
      1.5992704629898071,
      -0.0954715833067894,
      -0.7024232745170593,
      1.5469410419464111,
      0.9209738969802856,
      1.1470682621002197,
      1.840842604637146,
      0.8929199576377869,
      -0.3769836723804474,
      1.121532917022705,
      -0.18544015288352966,
      0.6178755164146423,
      2.590486764907837,
      0.3312312364578247,
      -0.9559322595596313,
      1.8880048990249634,
      -0.3157866299152374,
      0.9097337126731873,
      0.2988242208957672,
      1.245750904083252,
      1.1041632890701294,
      0.30166539549827576,
      8.091076850891113,
      9.148274421691895,
      0.5799892544746399,
      0.9114506244659424,
      3.319969415664673,
      2.8285462856292725,
      -1.9001388549804688,
      -2.483252763748169,
      -0.29367855191230774,
      0.22406445443630219,
      4.744649887084961,
      0.34810662269592285,
      3.9312915802001953,
      -2.2154128551483154,
      -1.1490806341171265,
      8.446413040161133,
      7.145600318908691,
      -0.8330656290054321,
      4.364667892456055,
      1.1604950428009033,
      -4.7475409507751465,
      3.4465253353118896,
      -0.6945477724075317,
      0.28042224049568176,
      1.081358790397644,
      1.9264034032821655,
      3.4403021335601807,
      4.434837341308594,
      -2.1872427463531494,
      -1.6547452211380005,
      2.532496929168701,
      -1.5395359992980957,
      -1.6790131330490112,
      -5.372087001800537,
      -0.3361744284629822,
      -0.14923349022865295,
      -1.6583012342453003,
      -0.4687029719352722,
      0.6053812503814697,
      -0.8670987486839294,
      -1.8753373622894287,
      0.38963091373443604,
      -0.7633748054504395,
      -0.6810601949691772,
      -1.463828206062317,
      -0.6625842452049255,
      0.9778017401695251,
      -3.355856418609619,
      -0.5240805745124817,
      -5.601611614227295,
      -4.8778510093688965,
      -3.4176766872406006,
      -2.583510398864746,
      3.6344401836395264,
      -4.348996639251709,
      -1.16107976436615,
      2.319603681564331,
      9.562405586242676,
      6.094696044921875,
      0.29316186904907227,
      -1.9669736623764038,
      -4.540689468383789,
      5.875009536743164,
      1.4125970602035522,
      2.3445286750793457,
      3.6649720668792725,
      -5.727060794830322,
      -2.296254873275757,
      5.384522914886475,
      -2.289769172668457,
      0.6087901592254639,
      -6.998222351074219,
      2.0690674781799316,
      -0.35401666164398193,
      -3.527435779571533,
      -1.6104704141616821,
      -2.2287991046905518,
      1.3070645332336426,
      3.4499106407165527,
      -3.141573667526245,
      -2.5011706352233887,
      1.2182822227478027,
      4.86131477355957,
      -0.1905471831560135,
      -1.444922685623169,
      -1.434195637702942,
      -0.7895615696907043,
      -3.1811304092407227,
      -0.6048064827919006,
      1.6194987297058105,
      3.9110286235809326,
      -0.6477473974227905,
      -3.1644933223724365,
      1.530663013458252,
      -1.0637362003326416,
      0.8275108337402344,
      -4.839517116546631,
      0.9207037687301636,
      0.23359817266464233,
      -0.0270259827375412,
      -2.1276466846466064,
      2.864741802215576,
      -3.8110311031341553,
      -1.5700984001159668,
      0.7792903780937195,
      3.262233018875122,
      4.245442867279053,
      0.4042765498161316,
      -0.8905147910118103,
      3.89697527885437,
      -6.276137351989746,
      -2.238415479660034,
      2.6950228214263916,
      -2.2540841102600098,
      0.36460423469543457,
      5.41694450378418,
      -6.886569023132324,
      -1.7306641340255737,
      -6.187436103820801,
      -2.5064268112182617,
      0.27831020951271057,
      3.583557367324829,
      -10.439417839050293,
      2.7033815383911133,
      -0.08938661217689514,
      -2.5637693405151367,
      1.1039220094680786,
      5.294532299041748,
      1.1740002632141113,
      -0.6879675388336182,
      1.6750119924545288,
      -4.918015956878662,
      -2.051619291305542,
      -0.7483419179916382,
      4.735708236694336,
      0.39446961879730225,
      -1.8148014545440674,
      2.7170979976654053,
      4.916263103485107,
      -3.881784200668335,
      2.523758888244629,
      -1.9191514253616333,
      2.1899964809417725,
      -1.1386820077896118,
      -6.662801742553711,
      4.064589023590088,
      -0.689582347869873,
      -0.897392749786377,
      -0.7092235088348389,
      -1.4434274435043335,
      -1.4774852991104126,
      -2.44645094871521,
      -1.9619652032852173,
      -5.256910800933838,
      2.6076037883758545,
      0.18817244470119476,
      1.8297830820083618,
      1.0419844388961792,
      3.4260687828063965,
      5.842787265777588,
      -0.5020313858985901,
      3.4083123207092285,
      -0.19655703008174896,
      -2.162266492843628,
      1.8619250059127808,
      -1.7191141843795776,
      -3.191226005554199,
      1.999218225479126,
      -12.375361442565918,
      0.6382237076759338,
      -0.09408880025148392,
      -3.6562857627868652,
      -3.342158794403076,
      -0.3335934281349182,
      -1.459370732307434,
      -0.9857025146484375,
      1.7454558610916138,
      4.46027946472168,
      -2.4169540405273438,
      1.9459466934204102,
      1.4069304466247559,
      -3.9725093841552734,
      -0.13193701207637787,
      -5.292123317718506,
      3.849855422973633,
      -0.7093307375907898,
      -0.6389432549476624,
      -1.7133502960205078,
      2.1149020195007324,
      -4.049139022827148,
      2.2108702659606934,
      0.6197553277015686,
      -2.114117383956909,
      -1.5243157148361206,
      -0.5999658107757568,
      -1.5902501344680786,
      -0.632053792476654,
      0.7696216702461243,
      0.24987760186195374,
      -1.3703402280807495,
      0.5906853675842285,
      3.1474263668060303,
      2.2895150184631348,
      -0.5290623903274536,
      0.6051045060157776,
      1.4268795251846313,
      -3.4519948959350586,
      1.817206859588623,
      -4.2347731590271,
      0.2635161876678467,
      -3.4817748069763184,
      -1.1677806377410889,
      0.3337467610836029,
      -3.3182928562164307,
      -6.650195598602295,
      3.6865298748016357,
      -0.32633283734321594,
      1.7328232526779175,
      -2.433119773864746,
      -2.297560691833496,
      -1.0388786792755127,
      3.4173622131347656,
      -7.973810195922852,
      2.024935245513916,
      -0.9679293036460876,
      0.6313514709472656,
      -0.03159378841519356,
      0.46245577931404114,
      -0.28777390718460083,
      0.43227073550224304,
      -2.8977715969085693,
      -0.40046054124832153,
      -1.0558457374572754,
      -1.8722128868103027,
      -0.5191659331321716,
      -3.181899070739746,
      -1.4407939910888672,
      1.574686050415039,
      -0.9297236800193787,
      -1.0697702169418335,
      0.704067587852478,
      -0.9678338170051575,
      2.367022752761841,
      -3.32977557182312,
      2.1291143894195557,
      0.711681604385376,
      3.105841636657715,
      0.13942021131515503,
      -2.3456008434295654,
      1.074977993965149,
      1.6918443441390991,
      -3.580941915512085,
      0.15974482893943787,
      -2.3321311473846436,
      0.46680375933647156,
      0.5770651698112488,
      1.7629656791687012,
      -3.467179536819458,
      -1.6730070114135742,
      2.2989931106567383,
      5.098416328430176,
      2.5926287174224854,
      3.4456515312194824,
      1.3152315616607666,
      4.901899337768555,
      2.5451765060424805,
      -0.9579058289527893,
      -2.15291690826416,
      -0.021685661748051643,
      -0.07345623522996902,
      -0.584459125995636,
      -1.2083185911178589,
      2.6565017700195312,
      0.6623233556747437,
      -0.9662361145019531,
      -5.498584270477295,
      -0.8339271545410156,
      -1.4092196226119995,
      -2.7238972187042236,
      5.047410011291504,
      0.5590393543243408,
      -0.2828924059867859,
      -0.23233547806739807,
      0.08755649626255035,
      0.8702825903892517,
      2.1891448497772217,
      -1.767349123954773,
      1.8172887563705444,
      0.7960799932479858,
      0.45002034306526184,
      -2.0977046489715576,
      -4.119988441467285,
      -0.47173798084259033,
      0.5301031470298767,
      -3.499772787094116,
      3.299088954925537,
      -0.96448814868927,
      0.7571167349815369,
      -2.341989755630493,
      0.24918292462825775,
      -11.173315048217773,
      2.7416865825653076,
      0.3633131980895996,
      -15.386099815368652,
      0.16402509808540344,
      2.916966676712036,
      0.5682609677314758,
      0.29447418451309204,
      -2.734710454940796,
      -2.7792389392852783,
      -2.2774498462677,
      1.0540096759796143,
      1.5619397163391113,
      4.561316013336182,
      -2.9144914150238037,
      -2.7055723667144775,
      -7.964251518249512,
      -0.9634883999824524,
      -3.927607536315918,
      -1.5278115272521973,
      10.140275955200195,
      5.212330341339111,
      -3.627267599105835,
      -8.145277976989746,
      0.47532138228416443,
      -1.8658998012542725,
      -0.5392643809318542,
      -7.004619121551514,
      -1.1979156732559204,
      -1.4209845066070557,
      0.7683334946632385,
      2.0772690773010254,
      10.158079147338867,
      5.181633949279785,
      -5.221709728240967,
      -1.104838490486145,
      2.3775203227996826,
      -1.5156164169311523,
      -1.25050950050354,
      4.724918842315674,
      0.9893046021461487,
      1.3485381603240967,
      -0.3422294855117798,
      3.192687511444092,
      -0.9777181148529053,
      -4.8064141273498535,
      -6.8719563484191895,
      2.1083555221557617,
      4.83090353012085,
      -3.365582227706909,
      2.7741177082061768,
      0.053683727979660034,
      -7.340463638305664,
      -4.977903366088867,
      -5.956568241119385,
      4.298987865447998,
      3.4364280700683594,
      -0.7861543297767639,
      -6.688331604003906,
      1.818863868713379,
      -0.32522737979888916,
      3.0855507850646973,
      5.005876541137695,
      -13.88187313079834,
      4.548396587371826,
      -0.18364191055297852,
      4.4466552734375,
      -1.5748690366744995,
      -1.0455129146575928,
      12.24050521850586,
      -4.667471885681152,
      2.5061562061309814,
      4.905218124389648,
      -0.29889342188835144,
      -2.4285664558410645,
      4.573427677154541,
      -3.5253524780273438,
      0.1038845032453537,
      0.565549910068512,
      0.5722829699516296,
      -1.7598119974136353,
      -1.7420285940170288,
      -0.28849393129348755,
      -0.7428511381149292,
      -0.2041970193386078,
      -0.5417214632034302,
      -0.044755514711141586,
      -3.1058189868927,
      1.0876621007919312,
      -0.3128024637699127,
      -1.0783666372299194,
      1.6430625915527344,
      1.0845900774002075,
      1.2231614589691162,
      -0.1358513981103897,
      -4.3199687004089355,
      -0.7651863098144531,
      -0.9327437281608582,
      3.8708174228668213,
      0.4728377163410187,
      2.1524813175201416,
      0.07647933810949326,
      1.1281522512435913,
      -1.0195012092590332,
      0.055255383253097534,
      -0.7357792854309082,
      -0.46419498324394226,
      -1.5897890329360962,
      -2.142118453979492,
      -0.02858438342809677,
      0.7478851675987244,
      -1.8608478307724,
      1.2262730598449707,
      1.042604923248291,
      0.20195163786411285,
      -0.2450084686279297,
      0.6108464598655701,
      0.2344094067811966,
      0.05951636657118797,
      -0.7819446921348572,
      -0.5514854192733765,
      1.1710413694381714,
      -0.01820906437933445,
      -3.024473190307617,
      0.4423121511936188,
      -1.3461205959320068,
      -0.5615435838699341,
      -1.6946827173233032,
      4.047725677490234,
      -0.2553328275680542,
      0.28902390599250793,
      1.970677137374878,
      2.354581594467163,
      1.5117855072021484,
      1.9334685802459717,
      4.33652925491333,
      -0.03960246220231056,
      1.533987283706665,
      -2.224663019180298,
      3.4348316192626953,
      2.450556993484497,
      3.638017416000366,
      -5.206350803375244,
      1.926882028579712,
      0.9167776107788086,
      1.2352324724197388,
      -0.036708131432533264,
      0.9953632354736328
    ]
  },
  "hiddenLayers": [
    {
      "inputMatrix": {
        "rows": 20,
        "columns": 25,
        "weights": [
          -0.8711265921592712,
          2.658019781112671,
          -2.311736583709717,
          -2.232036828994751,
          -2.023460865020752,
          0.9902457594871521,
          0.34855085611343384,
          -2.5145506858825684,
          3.678391933441162,
          1.430052399635315,
          2.874641180038452,
          3.147550582885742,
          -0.5645658373832703,
          1.0682015419006348,
          -0.2722285985946655,
          0.08242274075746536,
          1.2562590837478638,
          -0.8838011026382446,
          0.023401310667395592,
          -0.7200857996940613,
          -1.76450777053833,
          0.29538658261299133,
          1.9106590747833252,
          -2.362839460372925,
          -1.6482847929000854,
          0.3938450515270233,
          -2.634535312652588,
          0.6981866359710693,
          0.5131381750106812,
          1.0709184408187866,
          -1.8756508827209473,
          0.18935178220272064,
          0.07221931219100952,
          -2.781404733657837,
          0.00067073421087116,
          -1.902295470237732,
          -3.661259651184082,
          -0.3871397376060486,
          -1.8023042678833008,
          0.36863046884536743,
          1.5263564586639404,
          -1.5569367408752441,
          -1.7295209169387817,
          -0.69502854347229,
          2.6704981327056885,
          1.0318349599838257,
          -1.909538984298706,
          -0.22323526442050934,
          1.5345262289047241,
          -0.17460997402668,
          1.2102452516555786,
          1.0161731243133545,
          1.3245869874954224,
          2.173415422439575,
          2.557835578918457,
          -1.2978036403656006,
          -0.497497022151947,
          0.5464197397232056,
          -1.165543794631958,
          -2.1218249797821045,
          -1.5311599969863892,
          -0.5154054164886475,
          -1.4107980728149414,
          -1.1749614477157593,
          -0.15449801087379456,
          0.7807227373123169,
          -1.4186384677886963,
          -0.7213408946990967,
          0.4328734278678894,
          2.4653117656707764,
          -0.33134952187538147,
          -0.9355006814002991,
          -0.5785254836082458,
          1.2890061140060425,
          -1.6253581047058105,
          1.6416906118392944,
          -1.724560260772705,
          -0.45305320620536804,
          -4.8307294845581055,
          -3.7704668045043945,
          1.1304550170898438,
          0.5634683966636658,
          -1.0686503648757935,
          -0.3412435054779053,
          2.403048276901245,
          3.3547239303588867,
          -0.596438467502594,
          -0.7015095949172974,
          1.8881429433822632,
          -1.9680794477462769,
          -1.955451488494873,
          1.4943991899490356,
          -0.9285087585449219,
          -0.24889709055423737,
          0.2768184542655945,
          0.7764555811882019,
          0.45554715394973755,
          1.1636821031570435,
          -1.7093756198883057,
          2.025972604751587,
          0.43000757694244385,
          0.16899394989013672,
          1.6948304176330566,
          -4.247078895568848,
          -1.0049511194229126,
          -0.2230350375175476,
          0.03599892556667328,
          -0.6806520223617554,
          -0.2882017195224762,
          -0.14150366187095642,
          0.7815638184547424,
          0.24452148377895355,
          -0.6296877861022949,
          -0.6737359166145325,
          0.921704888343811,
          -0.21962545812129974,
          1.4740458726882935,
          -2.8304736614227295,
          0.6561064720153809,
          1.0509403944015503,
          0.04567384347319603,
          1.2273019552230835,
          -0.6055747866630554,
          -0.08621053397655487,
          0.3754974901676178,
          0.5302566289901733,
          -1.4239840507507324,
          1.294108510017395,
          -0.28074216842651367,
          3.133007764816284,
          1.2582045793533325,
          -1.4173864126205444,
          0.5080909132957458,
          -1.9288958311080933,
          -0.22486025094985962,
          -2.3775317668914795,
          -2.0808067321777344,
          0.3167708218097687,
          -0.7345876693725586,
          -1.1636899709701538,
          5.592312335968018,
          -3.3664510250091553,
          -2.272249937057495,
          0.7780276536941528,
          -0.4225475788116455,
          0.6202983260154724,
          -5.249215602874756,
          0.19238997995853424,
          -1.9260300397872925,
          -3.7149713039398193,
          -0.33204174041748047,
          -1.4201128482818604,
          0.9704206585884094,
          -2.778827428817749,
          0.06042437627911568,
          -3.458582878112793,
          0.47528746724128723,
          0.2475109100341797,
          0.1306816041469574,
          -0.2965530753135681,
          -1.2208914756774902,
          0.7489229440689087,
          0.4129299521446228,
          1.167866587638855,
          0.515449583530426,
          1.096946120262146,
          1.149960994720459,
          -1.218764066696167,
          -0.6915736198425293,
          -1.5813246965408325,
          0.12520255148410797,
          0.2185387909412384,
          -0.9062091708183289,
          -2.3969295024871826,
          1.991420030593872,
          0.3709562420845032,
          -1.9904296398162842,
          1.4767231941223145,
          -3.236854076385498,
          -1.5465145111083984,
          1.450993537902832,
          -2.9675488471984863,
          -0.3194374740123749,
          0.9163960218429565,
          1.867506504058838,
          1.165857195854187,
          0.574679970741272,
          0.8131263256072998,
          1.5649017095565796,
          0.5903536081314087,
          -0.9425408840179443,
          0.10731464624404907,
          0.8139086365699768,
          -0.5496522784233093,
          -1.223934292793274,
          0.2916177213191986,
          3.60908579826355,
          -0.8594423532485962,
          -2.5474135875701904,
          2.742871046066284,
          -1.3261220455169678,
          1.2698427438735962,
          -0.5950174927711487,
          -0.07834077626466751,
          -2.043800115585327,
          -0.7275199294090271,
          1.4363120794296265,
          -0.015657229349017143,
          4.3637166023254395,
          2.0939064025878906,
          3.823453903198242,
          2.586458444595337,
          -0.2390180379152298,
          1.895692229270935,
          -1.7419227361679077,
          -1.4637832641601562,
          2.089820146560669,
          1.9069974422454834,
          0.9195539355278015,
          -0.9323562383651733,
          -0.5381900668144226,
          0.8325032591819763,
          -0.7955032587051392,
          0.9185556769371033,
          -0.046089205890893936,
          -0.07150198519229889,
          0.08144079893827438,
          0.045223746448755264,
          0.6494492888450623,
          -2.5478978157043457,
          1.037590503692627,
          -1.0528104305267334,
          0.07345020025968552,
          3.0510942935943604,
          1.6510416269302368,
          1.5290745496749878,
          0.4273509979248047,
          2.222172498703003,
          1.3076971769332886,
          1.819687008857727,
          -1.1905460357666016,
          2.2753713130950928,
          3.0350475311279297,
          -0.11628834158182144,
          -3.0190203189849854,
          1.5516523122787476,
          0.6453794836997986,
          -0.6492177844047546,
          -0.18929417431354523,
          1.7238678932189941,
          0.5229379534721375,
          -2.7014386653900146,
          2.1920583248138428,
          0.24723155796527863,
          0.40371888875961304,
          -0.7374145984649658,
          -1.8706352710723877,
          0.1225339025259018,
          -1.2063883543014526,
          -0.46410420536994934,
          1.8533167839050293,
          -2.126965284347534,
          -2.376697540283203,
          0.09031878411769867,
          -2.096658706665039,
          0.33760157227516174,
          0.370975136756897,
          -0.34933599829673767,
          -1.407140851020813,
          1.289580225944519,
          -0.46528953313827515,
          -3.13066029548645,
          -0.48972848057746887,
          -0.3443261682987213,
          0.8959612846374512,
          0.5317947268486023,
          -0.020833773538470268,
          -0.9887312650680542,
          2.7438392639160156,
          2.4618942737579346,
          0.28882288932800293,
          1.400590419769287,
          0.5095928311347961,
          -1.032034993171692,
          -1.6546322107315063,
          -1.3221224546432495,
          1.0809863805770874,
          -1.0377438068389893,
          -0.18460842967033386,
          -2.418224334716797,
          1.2939822673797607,
          -2.6289474964141846,
          1.1467323303222656,
          -1.3216047286987305,
          1.4826678037643433,
          -2.5661206245422363,
          -1.7783783674240112,
          0.09040619432926178,
          2.2762346267700195,
          -2.121586322784424,
          -1.4372930526733398,
          1.6186344623565674,
          2.228700637817383,
          0.09336559474468231,
          4.138943195343018,
          -2.1685101985931396,
          1.2089364528656006,
          3.8907017707824707,
          -1.9823366403579712,
          -2.2379798889160156,
          -2.019759178161621,
          0.21681982278823853,
          -1.151898980140686,
          -0.05339647829532623,
          -1.2490718364715576,
          1.4768743515014648,
          -0.849908173084259,
          0.08434472233057022,
          0.8959934711456299,
          1.1361033916473389,
          -0.005653851665556431,
          -2.6638667583465576,
          -2.282911777496338,
          0.11825229972600937,
          0.20248915255069733,
          0.24438464641571045,
          1.3354430198669434,
          2.6525304317474365,
          1.2947903871536255,
          -1.0591719150543213,
          -1.5930993556976318,
          -2.07924485206604,
          0.40950819849967957,
          -0.6561357975006104,
          0.5584642887115479,
          0.8841450214385986,
          -1.2993130683898926,
          -1.741220474243164,
          0.5441173315048218,
          -0.2605659067630768,
          -0.8593674898147583,
          -0.9825378656387329,
          -1.7987703084945679,
          -0.10736729949712753,
          3.3417818546295166,
          -0.5937632918357849,
          -0.12438357621431351,
          -0.4013509750366211,
          0.5536230206489563,
          -2.5742878913879395,
          -0.19569310545921326,
          0.2130029797554016,
          -1.119207739830017,
          0.1074313372373581,
          1.355033040046692,
          -1.4500977993011475,
          1.1228759288787842,
          1.1348177194595337,
          -1.263891577720642,
          0.9864902496337891,
          -4.399953842163086,
          0.6867933869361877,
          2.630777597427368,
          -0.8041465282440186,
          4.327256202697754,
          -2.38804030418396,
          0.4705847203731537,
          2.272688865661621,
          -0.5711187720298767,
          -0.9423648715019226,
          1.76369309425354,
          0.07531358301639557,
          1.6573742628097534,
          2.249634265899658,
          -1.4566086530685425,
          -2.9329421520233154,
          0.9236525297164917,
          0.20832663774490356,
          -0.01637844927608967,
          0.061091143637895584,
          0.5964795351028442,
          -0.39986079931259155,
          -0.1614806056022644,
          0.27782222628593445,
          -0.0010979926446452737,
          -0.4041142165660858,
          -2.541673421859741,
          -0.12259574234485626,
          -0.38601234555244446,
          -2.454249143600464,
          0.8316842317581177,
          2.04956316947937,
          -1.1338292360305786,
          1.368373990058899,
          -1.7470439672470093,
          -0.3179081380367279,
          -0.1670956015586853,
          -1.5419423580169678,
          -0.32859551906585693,
          0.6964021325111389,
          0.14243721961975098,
          -0.20574447512626648,
          1.1437923908233643,
          -0.2827739417552948,
          0.742853581905365,
          -1.760231375694275,
          0.8547828793525696,
          3.425534963607788,
          -3.711179733276367,
          -2.451265573501587,
          -2.282442092895508,
          -0.7057092785835266,
          0.456678181886673,
          -0.8054324388504028,
          -0.31349489092826843,
          3.6535027027130127,
          -0.1800736039876938,
          -2.554988145828247,
          1.0973827838897705,
          -0.3415405750274658,
          0.9571535587310791,
          -2.968661069869995,
          -1.1253422498703003,
          -1.9167296886444092,
          -1.386771559715271,
          1.3176339864730835,
          0.47316497564315796,
          1.0652680397033691,
          0.9360631108283997,
          4.191244602203369,
          3.538562059402466,
          -0.648772656917572,
          -0.8831847310066223,
          -2.21378755569458,
          -2.0374717712402344,
          -0.9344070553779602,
          -1.808493971824646,
          -0.30740562081336975,
          -0.7615349888801575,
          -2.6068079471588135,
          1.9959814548492432,
          -1.8582712411880493,
          -0.46738937497138977,
          0.17471203207969666,
          0.5412712097167969,
          -0.18310870230197906,
          -0.44482773542404175,
          -0.7090181708335876,
          0.4441932737827301,
          0.9296652674674988,
          0.4171087443828583,
          -0.37521499395370483,
          -0.4313974380493164,
          0.2929909825325012,
          1.8535946607589722,
          1.8065457344055176,
          0.23807214200496674,
          0.1778825968503952,
          -0.7190385460853577,
          -0.39367133378982544,
          0.2406053990125656,
          -0.29461178183555603,
          -1.4856637716293335,
          -0.053225576877593994,
          -1.1284475326538086,
          0.6301067471504211,
          -1.1345863342285156,
          0.7237810492515564,
          -0.4471939206123352,
          1.2084866762161255,
          -0.9980729222297668,
          -0.2348022162914276,
          0.15574559569358826,
          -1.1433647871017456,
          -1.0888298749923706,
          1.2172378301620483,
          -1.2661062479019165,
          0.2208990454673767,
          -0.1667902171611786,
          2.081986665725708,
          -3.1956684589385986,
          -0.4408979117870331,
          2.0909500122070312,
          -1.276517629623413,
          -1.5042098760604858,
          -3.9526102542877197,
          0.6424329876899719,
          -0.5765637159347534,
          -0.2646569013595581,
          2.3380231857299805,
          -0.4809414744377136,
          0.046347662806510925,
          -1.3361166715621948,
          -0.6023004651069641,
          -0.4608219563961029,
          -1.5626014471054077,
          -0.3240923583507538,
          0.5485969185829163,
          0.8057596683502197,
          0.5836499929428101
        ]
      },
      "inputHidden": {
        "rows": 20,
        "columns": 20,
        "weights": [
          2.046098232269287,
          0.555705189704895,
          0.6853146553039551,
          1.495825171470642,
          -0.5287679433822632,
          -1.6228278875350952,
          -1.0958552360534668,
          -0.10533320158720016,
          0.3561428487300873,
          -1.4582610130310059,
          -0.9634995460510254,
          2.1461668014526367,
          -1.121364951133728,
          -1.663267731666565,
          0.21827761828899384,
          0.4656200110912323,
          1.000996708869934,
          -0.8637455701828003,
          2.765852212905884,
          -0.4930776059627533,
          -1.436126708984375,
          2.9465785026550293,
          -0.30196934938430786,
          -4.158955097198486,
          -0.4934930205345154,
          1.0415775775909424,
          0.6212517023086548,
          -0.4395957291126251,
          -0.37194177508354187,
          -0.11778613924980164,
          -1.8706918954849243,
          1.0359116792678833,
          0.4845292866230011,
          0.8098574876785278,
          -0.6993622183799744,
          0.05989672616124153,
          -2.107452154159546,
          0.19217677414417267,
          -0.06808432936668396,
          0.35618898272514343,
          1.1151729822158813,
          1.2978085279464722,
          -1.4082446098327637,
          0.589918851852417,
          -1.4352744817733765,
          0.8892467617988586,
          0.7585045695304871,
          -1.7334210872650146,
          1.4477322101593018,
          -2.6776022911071777,
          1.8611459732055664,
          2.061858654022217,
          -1.1156175136566162,
          1.2976857423782349,
          1.3300353288650513,
          1.4258553981781006,
          -1.0045409202575684,
          2.285144805908203,
          -5.303670883178711,
          -3.8682658672332764,
          0.8465209603309631,
          3.4008710384368896,
          -1.7131712436676025,
          -1.4183181524276733,
          -1.8522413969039917,
          1.8815809488296509,
          -1.2634916305541992,
          2.651447296142578,
          1.0275754928588867,
          -0.7163504362106323,
          0.5302054286003113,
          -1.9868460893630981,
          1.8087552785873413,
          -2.143725633621216,
          -0.3759191930294037,
          1.4429434537887573,
          1.316064476966858,
          1.8154224157333374,
          1.2232238054275513,
          0.026188954710960388,
          2.791456937789917,
          4.82215690612793,
          -1.0589171648025513,
          0.28426703810691833,
          0.7951415777206421,
          -0.8855370283126831,
          3.4092764854431152,
          -3.2194149494171143,
          0.9857367277145386,
          -0.23048874735832214,
          -1.0675305128097534,
          -0.9686362147331238,
          3.7738735675811768,
          3.6943159103393555,
          1.7549265623092651,
          -4.365049362182617,
          -0.27895617485046387,
          2.5288326740264893,
          -0.021524058654904366,
          -4.105392932891846,
          1.2789230346679688,
          -1.8907095193862915,
          -0.23879356682300568,
          -0.582633912563324,
          -0.5331750512123108,
          3.356955051422119,
          -1.582668662071228,
          3.2910637855529785,
          -1.0625996589660645,
          2.9330663681030273,
          -2.633655071258545,
          -0.8475947380065918,
          2.0770263671875,
          -0.16913700103759766,
          0.7951834201812744,
          1.7369308471679688,
          -1.2641913890838623,
          2.0718891620635986,
          -1.478708028793335,
          0.8186860680580139,
          0.28512299060821533,
          1.018602728843689,
          -1.5940659046173096,
          0.8143337368965149,
          4.555812358856201,
          -3.4134774208068848,
          3.4795689582824707,
          -4.025396823883057,
          1.4940433502197266,
          -0.33007386326789856,
          -1.664994716644287,
          4.7533464431762695,
          -3.565579652786255,
          -1.271369218826294,
          -0.10995189845561981,
          -5.817951202392578,
          -1.580328106880188,
          4.065821170806885,
          -3.757587432861328,
          -1.5107060670852661,
          1.3135994672775269,
          -0.8528212308883667,
          -0.6629570722579956,
          1.337794303894043,
          1.7804386615753174,
          -2.334157943725586,
          -3.5669138431549072,
          3.620925188064575,
          0.0850570872426033,
          1.5501737594604492,
          -2.258840560913086,
          4.206432342529297,
          1.2192788124084473,
          -0.03032662533223629,
          1.9854235649108887,
          1.0938265323638916,
          -0.8663542866706848,
          0.25791212916374207,
          1.2451720237731934,
          0.8773539066314697,
          1.5865188837051392,
          -1.016791820526123,
          0.14619296789169312,
          -0.19458580017089844,
          1.1718496084213257,
          0.21450980007648468,
          0.11942535638809204,
          -1.1616296768188477,
          0.3489156663417816,
          0.6182072758674622,
          0.33351990580558777,
          -0.07067137956619263,
          1.6043373346328735,
          -0.06981782615184784,
          -0.27626240253448486,
          -4.309113025665283,
          -0.3656015694141388,
          1.5709642171859741,
          -1.5339608192443848,
          0.1449798345565796,
          -2.714735269546509,
          -0.9842721223831177,
          1.4115424156188965,
          0.1959996074438095,
          2.1346306800842285,
          -1.4058367013931274,
          0.6358385682106018,
          -0.1945403814315796,
          1.8821635246276855,
          2.1064376831054688,
          0.6879070997238159,
          0.03585612773895264,
          1.390228509902954,
          -0.6376044750213623,
          -2.617224931716919,
          -0.840379536151886,
          -0.35653555393218994,
          -1.047935962677002,
          -1.701352834701538,
          -2.3133223056793213,
          1.9832688570022583,
          -3.869560480117798,
          1.382871389389038,
          0.5041457414627075,
          0.43424418568611145,
          -1.037256121635437,
          4.044355392456055,
          0.12791013717651367,
          2.2876672744750977,
          0.2851632237434387,
          1.4355825185775757,
          1.8686789274215698,
          -1.1327431201934814,
          -1.7615505456924438,
          -0.25347793102264404,
          -3.784848690032959,
          1.2808477878570557,
          0.6849279999732971,
          1.3411167860031128,
          -0.7146604061126709,
          -3.899752616882324,
          0.32046249508857727,
          -0.012014197185635567,
          -1.6782612800598145,
          3.0633976459503174,
          -0.024633632972836494,
          0.027576684951782227,
          -0.2870548665523529,
          0.22202631831169128,
          -0.5284807682037354,
          0.7246347069740295,
          1.5302464962005615,
          -0.38088148832321167,
          1.3038312196731567,
          0.61915123462677,
          0.7530773282051086,
          -1.7989753484725952,
          0.5235650539398193,
          -0.04220077022910118,
          2.4981722831726074,
          0.5789845585823059,
          -0.15688136219978333,
          -2.3786191940307617,
          -1.230086326599121,
          1.783486008644104,
          -1.9917972087860107,
          2.495980978012085,
          -1.6716995239257812,
          -0.7489449977874756,
          -2.142141103744507,
          3.497772455215454,
          -1.3310519456863403,
          0.19671446084976196,
          -1.2719039916992188,
          -0.3553667962551117,
          -0.49491292238235474,
          -0.6109293103218079,
          -1.2818323373794556,
          0.38674086332321167,
          -4.251154899597168,
          3.484422445297241,
          0.43881741166114807,
          -2.7934112548828125,
          -2.056114673614502,
          0.8306055068969727,
          0.5534194111824036,
          -1.950322151184082,
          -0.6167464852333069,
          -0.3466992974281311,
          -2.3172998428344727,
          1.200982689857483,
          1.632416009902954,
          1.2232189178466797,
          -0.3228476941585541,
          3.9240853786468506,
          -0.1326655000448227,
          -0.11876367777585983,
          3.4832351207733154,
          -3.576767683029175,
          1.372194528579712,
          -0.8562672734260559,
          1.44291090965271,
          -1.81253981590271,
          -0.5678281188011169,
          1.3167580366134644,
          2.739849090576172,
          0.9780640602111816,
          0.4986141324043274,
          -0.2254268229007721,
          1.8696609735488892,
          -3.3109824657440186,
          -2.0522396564483643,
          -0.9689350724220276,
          -0.34049755334854126,
          0.07382220029830933,
          -3.4281272888183594,
          0.19377288222312927,
          3.444080352783203,
          -0.5408396124839783,
          -0.5901322960853577,
          -0.8354361057281494,
          1.687173843383789,
          2.347179651260376,
          0.950157105922699,
          -1.4869015216827393,
          0.35202887654304504,
          -4.425065040588379,
          -0.3927859663963318,
          -4.253888130187988,
          5.140262126922607,
          -3.827946662902832,
          -2.952380657196045,
          -0.696445882320404,
          -0.8043165802955627,
          -1.281917929649353,
          0.8685474395751953,
          -0.24212604761123657,
          -0.6410210132598877,
          1.3391506671905518,
          2.8556578159332275,
          1.810601830482483,
          1.8092283010482788,
          -2.2043089866638184,
          -1.3415563106536865,
          -0.9904922246932983,
          -0.9960771203041077,
          0.45784905552864075,
          2.4914188385009766,
          -0.40339937806129456,
          -0.7604385018348694,
          0.2617805302143097,
          -2.510887622833252,
          -1.1112561225891113,
          0.5702841281890869,
          -2.024186134338379,
          5.010935306549072,
          -1.5692119598388672,
          -2.5167109966278076,
          0.0559643916785717,
          -0.05284618213772774,
          -1.4814839363098145,
          0.5483411550521851,
          -0.23657165467739105,
          2.5083117485046387,
          2.6046011447906494,
          1.185226559638977,
          -2.031559944152832,
          0.7520301938056946,
          0.545667827129364,
          -0.19804348051548004,
          -4.292943000793457,
          -0.31200075149536133,
          0.9609717130661011,
          -1.2242202758789062,
          2.083709716796875,
          0.44000574946403503,
          2.2089245319366455,
          0.2894856929779053,
          0.19206802546977997,
          0.46910184621810913,
          2.598329544067383,
          -0.9559639692306519,
          -3.7646589279174805,
          -1.483135461807251,
          5.444030284881592,
          0.7274620532989502,
          1.182364821434021,
          -4.822700023651123,
          1.5970152616500854,
          -8.205185890197754,
          3.476186990737915,
          1.747288465499878,
          5.539298057556152,
          2.332034111022949,
          1.5530210733413696,
          0.752330482006073,
          -0.3098594546318054,
          2.6775290966033936,
          -0.2126941978931427,
          1.592324137687683,
          0.5675727725028992,
          0.8719900250434875,
          0.126542866230011,
          2.6963882446289062,
          -2.171025276184082,
          -3.1094229221343994,
          2.2148613929748535,
          -2.252026081085205,
          2.0193405151367188,
          -0.32199397683143616,
          0.9390506744384766,
          -0.6115864515304565,
          2.18931245803833,
          -1.3557000160217285,
          1.137900710105896,
          -1.455771803855896,
          -0.3027581572532654,
          0.20416893064975739,
          0.028830507770180702,
          0.7769168019294739
        ]
      },
      "inputBias": {
        "rows": 20,
        "columns": 1,
        "weights": [
          -0.3969874382019043,
          0.13863185048103333,
          0.9896552562713623,
          -0.1886831820011139,
          -1.2057018280029297,
          -0.395696759223938,
          -1.6418462991714478,
          -0.384036660194397,
          -0.3025847375392914,
          -1.274035930633545,
          -0.560685396194458,
          -0.8017794489860535,
          0.20880228281021118,
          0.711771547794342,
          -0.37675097584724426,
          -1.6470868587493896,
          0.2419980764389038,
          0.04102318733930588,
          -1.373996376991272,
          -0.3663383722305298
        ]
      },
      "forgetMatrix": {
        "rows": 20,
        "columns": 25,
        "weights": [
          3.3496947288513184,
          -1.4377663135528564,
          0.1787475347518921,
          -0.5896021723747253,
          -0.4696815311908722,
          -2.2498834133148193,
          -1.247688889503479,
          0.3326127529144287,
          -2.132690191268921,
          0.8365288972854614,
          0.14476095139980316,
          -0.532774031162262,
          -0.2763908803462982,
          -0.9817060828208923,
          2.805880308151245,
          0.8243705034255981,
          -1.2234680652618408,
          -1.763619065284729,
          -0.8982488512992859,
          3.2143852710723877,
          -0.31369635462760925,
          -0.2598564326763153,
          0.35034850239753723,
          -1.7810417413711548,
          -0.15089157223701477,
          0.7088778614997864,
          2.8181135654449463,
          0.9001259207725525,
          0.5322898030281067,
          -1.0945680141448975,
          -0.22692757844924927,
          -0.14610883593559265,
          0.11657661944627762,
          0.6482802629470825,
          -1.3560779094696045,
          0.5132178664207458,
          0.47552427649497986,
          0.10802233219146729,
          1.4934351444244385,
          -0.3205127716064453,
          0.8316507339477539,
          2.0511488914489746,
          -0.7463522553443909,
          0.807051420211792,
          -1.8556041717529297,
          0.9826029539108276,
          -0.953465461730957,
          -2.3588106632232666,
          -1.5306936502456665,
          -0.742247462272644,
          2.349196672439575,
          -1.6020758152008057,
          0.2208501249551773,
          3.800422191619873,
          0.5593014359474182,
          1.0783817768096924,
          -1.7287991046905518,
          0.6625683903694153,
          0.08436223119497299,
          -1.7997766733169556,
          0.07501092553138733,
          0.21674621105194092,
          -0.034723468124866486,
          0.31881648302078247,
          -1.762313723564148,
          0.485914945602417,
          -1.109083890914917,
          1.576695442199707,
          -1.1126008033752441,
          -0.49978405237197876,
          -4.305688381195068,
          -0.60626620054245,
          0.16864491999149323,
          1.5856608152389526,
          -0.06407222151756287,
          1.840448021888733,
          -2.198817729949951,
          -2.9465346336364746,
          -2.1432249546051025,
          -1.454643964767456,
          -2.4872052669525146,
          -0.7381235957145691,
          0.23391200602054596,
          0.660400390625,
          1.4994916915893555,
          0.09913546591997147,
          0.6126331686973572,
          -1.9998103380203247,
          0.832300066947937,
          0.2933308184146881,
          -0.7746167182922363,
          -0.2963827848434448,
          -0.9057948589324951,
          -3.24204158782959,
          1.4855492115020752,
          -1.2042477130889893,
          1.8876327276229858,
          3.6642494201660156,
          -1.0706987380981445,
          0.4912334382534027,
          2.013735055923462,
          -0.09743528068065643,
          0.26485660672187805,
          -0.5226574540138245,
          -0.255770742893219,
          -3.4579834938049316,
          -1.3861414194107056,
          0.12410911172628403,
          -0.9793205261230469,
          -0.18391920626163483,
          0.5615723729133606,
          -1.4434404373168945,
          -1.4266645908355713,
          0.1577494889497757,
          -0.6724912524223328,
          1.0067341327667236,
          -1.3936100006103516,
          -1.2325438261032104,
          -1.2355705499649048,
          1.5698111057281494,
          0.11991555988788605,
          -2.6395745277404785,
          0.16281305253505707,
          0.5082739591598511,
          -2.5966405868530273,
          1.504909634590149,
          -0.014993766322731972,
          -1.9794508218765259,
          0.6487997770309448,
          1.671907901763916,
          -1.6674705743789673,
          0.21381378173828125,
          2.3773248195648193,
          -0.873674213886261,
          0.5188036561012268,
          -0.31256595253944397,
          -0.7713996767997742,
          0.4487396776676178,
          -3.0955870151519775,
          1.637789011001587,
          0.7379060983657837,
          -1.7981576919555664,
          -1.2590090036392212,
          -2.084907054901123,
          2.3825602531433105,
          -0.9316921234130859,
          -1.737897276878357,
          2.0644474029541016,
          -0.8892048001289368,
          -3.639774799346924,
          -0.07925593852996826,
          -0.5213085412979126,
          -1.875288963317871,
          -1.06755793094635,
          -0.20523564517498016,
          -1.6088775396347046,
          -2.281005859375,
          0.6042769551277161,
          0.19609788060188293,
          0.7762506008148193,
          0.03624763339757919,
          1.1375106573104858,
          0.03887726739048958,
          -1.6132186651229858,
          1.5973048210144043,
          0.22908072173595428,
          0.4321287274360657,
          -0.30056509375572205,
          -1.1657819747924805,
          -1.1392730474472046,
          -0.04039374738931656,
          -0.40041443705558777,
          0.9573190808296204,
          -0.02888680249452591,
          0.13419145345687866,
          -0.16936945915222168,
          2.592099189758301,
          0.15167970955371857,
          1.036241054534912,
          -0.9188045263290405,
          2.676166296005249,
          2.84763765335083,
          -0.2847064733505249,
          2.0275814533233643,
          -1.4658743143081665,
          0.5382864475250244,
          0.10726959258317947,
          2.9419846534729004,
          -0.6195851564407349,
          0.0826219841837883,
          -0.5673686861991882,
          1.5499064922332764,
          -1.4198414087295532,
          1.5197677612304688,
          -1.0548076629638672,
          1.840174913406372,
          1.2827503681182861,
          0.7847273349761963,
          2.5775575637817383,
          -0.3684600293636322,
          1.422966480255127,
          -2.9772660732269287,
          0.8379697799682617,
          -0.5821394920349121,
          0.6467029452323914,
          -2.501279830932617,
          -0.630698025226593,
          -0.291695773601532,
          -3.3035151958465576,
          1.1910866498947144,
          -2.4544177055358887,
          -0.45116186141967773,
          -0.8379449248313904,
          -2.25246000289917,
          1.6597840785980225,
          -0.21100947260856628,
          -1.1208415031433105,
          -3.710904121398926,
          -1.1907347440719604,
          1.6641154289245605,
          -1.941546082496643,
          0.13925950229167938,
          -0.04123140871524811,
          0.23032434284687042,
          -1.3512547016143799,
          0.3689987361431122,
          0.022701120004057884,
          -0.9611775279045105,
          -1.4492219686508179,
          -2.5438661575317383,
          0.6581141352653503,
          0.5562753081321716,
          -0.3009780943393707,
          -0.37145641446113586,
          -1.361515998840332,
          0.45154985785484314,
          -2.68217396736145,
          2.6420164108276367,
          -0.9781063199043274,
          0.9130643010139465,
          1.6899476051330566,
          1.5204821825027466,
          -1.791839361190796,
          -1.2938034534454346,
          -1.0561331510543823,
          0.9844636917114258,
          -2.0956687927246094,
          -0.6275908946990967,
          -1.5249747037887573,
          1.2942715883255005,
          -0.03886523097753525,
          -1.2737873792648315,
          -1.6600972414016724,
          0.9435151219367981,
          -0.5793193578720093,
          -1.6220966577529907,
          0.020743519067764282,
          0.7043023705482483,
          1.0351779460906982,
          0.17013998329639435,
          1.6573210954666138,
          1.8477261066436768,
          1.1677298545837402,
          -1.231788158416748,
          -0.771600604057312,
          -0.2868451476097107,
          1.127386450767517,
          3.9469499588012695,
          -2.6225650310516357,
          -1.8440824747085571,
          -1.0578968524932861,
          -0.4599217474460602,
          1.9059255123138428,
          -0.9850261211395264,
          1.6798529624938965,
          -0.35614892840385437,
          -0.917195737361908,
          -0.270223468542099,
          0.254772812128067,
          1.305953860282898,
          -0.39352431893348694,
          -0.11379698663949966,
          0.4353737235069275,
          -0.4715811312198639,
          -2.2553884983062744,
          -1.36569082736969,
          4.383895397186279,
          0.06141394376754761,
          -0.05088397487998009,
          -0.43995463848114014,
          1.252223014831543,
          1.0097315311431885,
          1.1031267642974854,
          -1.2274035215377808,
          -0.6013469099998474,
          -3.3960251808166504,
          -1.6914199590682983,
          0.7170522212982178,
          1.7293894290924072,
          -0.7936273813247681,
          -0.00714274775236845,
          -1.3363573551177979,
          -0.9261029958724976,
          0.1236845850944519,
          -0.09062835574150085,
          0.4060367941856384,
          -0.9376481771469116,
          0.11387617141008377,
          0.926268994808197,
          1.5090842247009277,
          2.157313346862793,
          2.4978113174438477,
          -0.4567928910255432,
          1.3156505823135376,
          -0.13820745050907135,
          -1.3902876377105713,
          0.7586478590965271,
          3.2221250534057617,
          -2.79264497756958,
          0.23924417793750763,
          -1.1912153959274292,
          -0.21825404465198517,
          0.5020485520362854,
          -2.154062509536743,
          1.5057742595672607,
          1.4091429710388184,
          0.6098259687423706,
          -1.9929771423339844,
          0.8923473358154297,
          -0.568899393081665,
          1.6322205066680908,
          -0.22916243970394135,
          -0.5273095369338989,
          3.394087791442871,
          -0.8442613482475281,
          1.7340235710144043,
          0.9924933910369873,
          2.1333675384521484,
          0.13193590939044952,
          0.46853116154670715,
          -1.357445478439331,
          1.7314155101776123,
          2.084850311279297,
          -0.16400322318077087,
          -2.511746644973755,
          1.8773764371871948,
          0.26557570695877075,
          1.311217188835144,
          0.011465378105640411,
          0.8181453943252563,
          -0.3204672038555145,
          -2.8098645210266113,
          4.64970064163208,
          -0.6381080150604248,
          0.231973797082901,
          0.5667794346809387,
          -2.673574924468994,
          -0.019981948658823967,
          -1.2430682182312012,
          0.5114842057228088,
          -0.9519973397254944,
          -1.4203591346740723,
          -3.1658105850219727,
          0.8062143325805664,
          1.1648173332214355,
          -2.5336880683898926,
          0.010126795619726181,
          -0.4709046483039856,
          0.8936705589294434,
          1.5113143920898438,
          -1.9629796743392944,
          0.05321737751364708,
          -1.498562216758728,
          1.3114200830459595,
          -1.8549301624298096,
          0.7998021841049194,
          1.4166523218154907,
          0.1455913931131363,
          0.37660932540893555,
          0.17549845576286316,
          -1.8648337125778198,
          0.8768194913864136,
          -0.8700360059738159,
          1.7444764375686646,
          -0.7437065243721008,
          -1.2215102910995483,
          2.3433468341827393,
          -0.08841061592102051,
          -0.5940207242965698,
          -0.10321255028247833,
          0.08265724778175354,
          2.208040714263916,
          -0.1834956854581833,
          0.48591652512550354,
          -3.205937623977661,
          1.3942595720291138,
          0.17112495005130768,
          0.048322323709726334,
          0.8371618986129761,
          0.01005417201668024,
          0.13993680477142334,
          1.7421420812606812,
          -3.4644722938537598,
          0.14028558135032654,
          -0.5493223667144775,
          0.9935837984085083,
          2.3658108711242676,
          -1.089565634727478,
          0.8704519867897034,
          -3.2567710876464844,
          -0.7558165192604065,
          2.1263439655303955,
          1.0389914512634277,
          -2.6178464889526367,
          2.2730443477630615,
          0.958613395690918,
          1.427437424659729,
          -0.7159273028373718,
          -0.3581140339374542,
          -1.188482403755188,
          -1.046162486076355,
          -1.0363253355026245,
          2.5920698642730713,
          -0.043194159865379333,
          -2.400405168533325,
          -0.6676281094551086,
          -0.9111680388450623,
          3.2757270336151123,
          -0.4104241132736206,
          -0.5585812926292419,
          0.662205696105957,
          -0.5155292749404907,
          -0.4305802583694458,
          1.132802963256836,
          -0.5006710290908813,
          1.3766454458236694,
          -2.920074224472046,
          -0.2762869894504547,
          1.4662339687347412,
          -2.1267549991607666,
          -1.7003469467163086,
          -0.19115567207336426,
          -0.018819430842995644,
          2.3009166717529297,
          -0.7360427379608154,
          1.6412068605422974,
          1.0479226112365723,
          -1.4973801374435425,
          -1.0330719947814941,
          0.16402016580104828,
          2.2624523639678955,
          1.0935310125350952,
          -1.1790732145309448,
          -0.23456092178821564,
          -0.9779872298240662,
          0.27065280079841614,
          -1.462865948677063,
          -0.1730143278837204,
          0.5110512971878052,
          0.7670363783836365,
          0.305419921875,
          0.13719558715820312,
          3.964991807937622,
          0.3405199944972992,
          1.3667320013046265,
          2.056713342666626,
          1.1709362268447876,
          0.9011402130126953,
          -1.4999549388885498,
          -2.552955150604248,
          2.0602331161499023,
          -0.5447810292243958,
          0.7387396097183228,
          -0.259016215801239,
          0.3766227960586548,
          0.8828814625740051,
          -0.41955599188804626,
          -0.39324402809143066,
          2.0439844131469727,
          1.204394817352295,
          0.7660337090492249,
          -1.715659260749817,
          -0.911323606967926,
          0.42691734433174133,
          0.29050156474113464,
          -0.6101974248886108,
          1.1180963516235352,
          -1.0781117677688599,
          0.6329106688499451,
          -1.8227815628051758,
          -0.32968756556510925,
          -1.078554391860962,
          1.818088173866272,
          -1.7687952518463135,
          -0.3963676989078522,
          -5.346803665161133,
          -1.201320767402649,
          1.1523170471191406,
          -0.05922648310661316,
          -0.9254043698310852
        ]
      },
      "forgetHidden": {
        "rows": 20,
        "columns": 20,
        "weights": [
          -1.9327634572982788,
          5.8037028312683105,
          -0.36665934324264526,
          1.3886213302612305,
          2.7152349948883057,
          -4.2976393699646,
          1.6727204322814941,
          -1.0754591226577759,
          3.154313325881958,
          0.6859256029129028,
          3.301403284072876,
          -1.0288344621658325,
          -0.2200532704591751,
          0.9809209704399109,
          1.2810444831848145,
          3.571894407272339,
          -1.6643517017364502,
          -3.0415565967559814,
          -2.0321943759918213,
          3.3693130016326904,
          2.970609188079834,
          -1.0846585035324097,
          0.1513010710477829,
          -0.1470733880996704,
          0.6812470555305481,
          2.810802698135376,
          2.603426218032837,
          -5.504960060119629,
          -3.6280689239501953,
          -6.130310535430908,
          3.308210849761963,
          2.8336830139160156,
          -0.9599435329437256,
          0.30750772356987,
          -1.2602558135986328,
          2.2880704402923584,
          -0.13373911380767822,
          2.2188501358032227,
          -1.4445487260818481,
          -3.6062591075897217,
          -0.7963429689407349,
          -0.33048179745674133,
          2.708544969558716,
          -0.6036437749862671,
          1.0443357229232788,
          -2.6582930088043213,
          3.748777151107788,
          -0.8628600835800171,
          1.513889193534851,
          1.5886447429656982,
          -1.9151886701583862,
          -1.1204181909561157,
          0.48455068469047546,
          -0.2875053286552429,
          -1.0253803730010986,
          2.9329943656921387,
          -1.9476089477539062,
          -0.7367894649505615,
          -0.7432407140731812,
          0.6435508728027344,
          0.17331379652023315,
          -0.8901953101158142,
          1.4889503717422485,
          -0.4734390079975128,
          -0.9963710904121399,
          -2.319938898086548,
          -4.495410919189453,
          -0.9758191704750061,
          1.0843485593795776,
          0.3013213872909546,
          0.7277489900588989,
          -1.1335315704345703,
          -1.0494321584701538,
          1.5460004806518555,
          -1.302327036857605,
          2.0981974601745605,
          -0.23534274101257324,
          -3.3986563682556152,
          -0.22183477878570557,
          0.65223628282547,
          -0.0017019943334162235,
          2.586148262023926,
          -3.421678066253662,
          -2.3391711711883545,
          -0.8175080418586731,
          3.3997435569763184,
          1.010872721672058,
          -1.2373030185699463,
          -0.9902326464653015,
          -0.08625046163797379,
          0.7351489663124084,
          1.2734780311584473,
          0.7986468076705933,
          -3.064565420150757,
          2.164963960647583,
          -0.6145520806312561,
          1.8850972652435303,
          1.9682799577713013,
          0.17640173435211182,
          -1.3631699085235596,
          3.009124517440796,
          1.6159154176712036,
          -2.735811710357666,
          -0.1108112707734108,
          3.2742674350738525,
          -1.9119032621383667,
          0.9200737476348877,
          -2.5274035930633545,
          -0.5171480774879456,
          2.8158087730407715,
          0.8647870421409607,
          -1.0938080549240112,
          2.0399556159973145,
          -2.1479499340057373,
          1.1007426977157593,
          -2.2309393882751465,
          1.2430747747421265,
          1.7686669826507568,
          -2.0568063259124756,
          -0.7378481030464172,
          -2.8229353427886963,
          -3.765244960784912,
          3.0789341926574707,
          1.0456472635269165,
          -0.9485282301902771,
          1.7136908769607544,
          -3.2614736557006836,
          -1.6898785829544067,
          -0.13285432755947113,
          4.182216167449951,
          -1.5449105501174927,
          0.43501636385917664,
          -1.1245434284210205,
          5.478556156158447,
          -1.6736112833023071,
          -0.30981916189193726,
          1.4565966129302979,
          -3.379040241241455,
          1.91102933883667,
          0.6852866411209106,
          -0.4971431493759155,
          -1.5248469114303589,
          0.46595484018325806,
          -1.3942869901657104,
          -0.9302433133125305,
          1.2370816469192505,
          1.3114885091781616,
          -0.2020026296377182,
          2.267133951187134,
          -0.9561291933059692,
          0.6780370473861694,
          2.2741830348968506,
          -0.02082718163728714,
          2.0869569778442383,
          -0.2211906760931015,
          2.310835123062134,
          2.1062445640563965,
          3.8443360328674316,
          -0.1651676893234253,
          -0.5843768119812012,
          2.1802897453308105,
          -1.8326869010925293,
          0.4481910169124603,
          0.17900288105010986,
          -1.685555100440979,
          1.9206976890563965,
          3.05723237991333,
          -2.388503074645996,
          -0.18075446784496307,
          -1.8730494976043701,
          -2.3474462032318115,
          3.539297342300415,
          0.23101474344730377,
          -0.6574625968933105,
          1.8050392866134644,
          0.43566814064979553,
          -0.7228270173072815,
          0.887549877166748,
          3.8959925174713135,
          -2.6295320987701416,
          -5.63165807723999,
          -2.0137760639190674,
          1.504321575164795,
          6.040328502655029,
          -3.695392608642578,
          1.7362432479858398,
          -0.6969000101089478,
          0.03657791018486023,
          0.8344334363937378,
          4.617587566375732,
          -5.265527248382568,
          1.8930147886276245,
          1.2650538682937622,
          -1.477168083190918,
          -2.1166398525238037,
          -0.06820429861545563,
          1.3347615003585815,
          -1.637009859085083,
          1.3247150182724,
          1.4949363470077515,
          -1.5338588953018188,
          3.3449885845184326,
          0.6464746594429016,
          1.8446574211120605,
          -4.322899341583252,
          0.310118168592453,
          -0.4516329765319824,
          -2.8903279304504395,
          -2.0013580322265625,
          1.5283693075180054,
          -1.8182462453842163,
          3.7820520401000977,
          -2.9496519565582275,
          -1.0322004556655884,
          0.545631468296051,
          -0.2560333013534546,
          -5.232484817504883,
          -0.35037916898727417,
          -0.25865602493286133,
          -0.326122522354126,
          -4.40978479385376,
          -1.7467917203903198,
          -2.4974496364593506,
          -3.3430380821228027,
          -6.155594825744629,
          -3.220092535018921,
          -4.054656982421875,
          -1.1601892709732056,
          -0.5669544339179993,
          -0.7418116927146912,
          3.3965823650360107,
          0.010901057161390781,
          2.227856397628784,
          -1.912173867225647,
          1.3399046659469604,
          4.499123573303223,
          -1.860921025276184,
          -2.3271255493164062,
          0.043509382754564285,
          -1.6635730266571045,
          -1.1023681163787842,
          -0.5994457006454468,
          -0.14721623063087463,
          -0.8165907263755798,
          -0.2821105420589447,
          -0.345842570066452,
          -1.6620516777038574,
          -0.5706608891487122,
          -2.1390628814697266,
          -1.523554801940918,
          -2.0891239643096924,
          1.1819525957107544,
          0.8423008918762207,
          0.4505098760128021,
          0.6335407495498657,
          -0.26492682099342346,
          1.5160719156265259,
          1.603766679763794,
          1.7457427978515625,
          0.024448134005069733,
          -3.079871654510498,
          1.479689359664917,
          -1.6706697940826416,
          -1.4378401041030884,
          -2.0484471321105957,
          2.531776189804077,
          -2.989532709121704,
          -2.0816218852996826,
          -1.5877326726913452,
          2.6884970664978027,
          -0.20775115489959717,
          -0.4099827706813812,
          -0.04169180244207382,
          -2.4849584102630615,
          2.7250635623931885,
          0.9209010601043701,
          1.8114527463912964,
          2.3312504291534424,
          2.085564374923706,
          0.49678635597229004,
          1.5301625728607178,
          -0.5772882103919983,
          2.1011080741882324,
          -2.3088443279266357,
          0.9490526914596558,
          -1.5011802911758423,
          2.2576863765716553,
          -2.135345935821533,
          0.18318131566047668,
          -0.7022544741630554,
          2.0745110511779785,
          1.2501015663146973,
          5.811931610107422,
          1.9131213426589966,
          -0.4105653166770935,
          0.6348334550857544,
          -2.006497383117676,
          -0.39607569575309753,
          -0.5429155826568604,
          0.43674126267433167,
          -0.4001244902610779,
          -1.8987184762954712,
          -0.3357238173484802,
          0.7478439211845398,
          0.7945916652679443,
          -0.6670820116996765,
          0.7155156135559082,
          -2.3707590103149414,
          0.43310606479644775,
          -2.4129786491394043,
          4.65878438949585,
          1.36823570728302,
          1.997685432434082,
          -2.261725664138794,
          -0.18486645817756653,
          -1.55499267578125,
          0.38981762528419495,
          0.5578721761703491,
          -0.4551030397415161,
          -0.2959258258342743,
          -1.1770458221435547,
          1.9215874671936035,
          -2.9874801635742188,
          1.828258752822876,
          1.5206693410873413,
          1.279868721961975,
          0.223086878657341,
          0.7022898197174072,
          -0.7449417114257812,
          0.7968499064445496,
          -5.637118816375732,
          0.3288719952106476,
          8.674168586730957,
          -0.5849372148513794,
          0.4353662133216858,
          -1.656095027923584,
          0.8551340103149414,
          1.3736718893051147,
          -0.9865458607673645,
          0.032102733850479126,
          0.1507793515920639,
          -2.9242160320281982,
          3.2908058166503906,
          -0.5994774699211121,
          0.5824714303016663,
          -3.4241890907287598,
          0.47263726592063904,
          -2.771401882171631,
          3.929760694503784,
          -0.7853128910064697,
          3.0929954051971436,
          1.191657304763794,
          2.8446154594421387,
          -1.0003561973571777,
          -3.7419981956481934,
          -0.8099543452262878,
          -2.3943064212799072,
          -1.038509488105774,
          -4.167967796325684,
          0.8272538781166077,
          1.621163249015808,
          0.25244924426078796,
          -0.0354350209236145,
          -1.8196327686309814,
          0.259947806596756,
          0.3659539520740509,
          -0.8977941274642944,
          -0.18983495235443115,
          -0.2916223704814911,
          -0.9008268117904663,
          2.4829320907592773,
          1.2418566942214966,
          -0.8064045310020447,
          -1.7212369441986084,
          0.5688336491584778,
          0.10121987015008926,
          -1.5313535928726196,
          -0.5857310891151428,
          -1.0728462934494019,
          -2.1166059970855713,
          -0.21882112324237823,
          2.1137540340423584,
          0.14459002017974854,
          0.8646799325942993,
          -1.4808704853057861,
          -1.5041897296905518,
          -0.3260509967803955,
          -0.9478353261947632,
          -1.7593458890914917,
          -0.9864245653152466,
          -4.010411262512207,
          -1.5309725999832153,
          -0.42827221751213074,
          -1.4360549449920654,
          0.9300132393836975,
          -0.2941407859325409,
          -1.266028642654419,
          -0.30911785364151,
          2.0855822563171387,
          2.7611660957336426
        ]
      },
      "forgetBias": {
        "rows": 20,
        "columns": 1,
        "weights": [
          0,
          0,
          0,
          0,
          0,
          0,
          0,
          0,
          0,
          0,
          0,
          0,
          0,
          0,
          0,
          0,
          0,
          0,
          0,
          0
        ]
      },
      "outputMatrix": {
        "rows": 20,
        "columns": 25,
        "weights": [
          2.0055859088897705,
          0.06435760110616684,
          -1.3840622901916504,
          -1.3687061071395874,
          -2.373697519302368,
          1.3520534038543701,
          2.1249067783355713,
          -0.8188246488571167,
          0.5100389122962952,
          0.861746072769165,
          3.7904961109161377,
          -1.221320629119873,
          1.3216004371643066,
          -0.5883218050003052,
          1.284988522529602,
          -0.6479507684707642,
          0.8433083295822144,
          -0.4123573899269104,
          -0.3434479236602783,
          1.183141827583313,
          2.097304582595825,
          -0.13133643567562103,
          1.0762324333190918,
          -0.37678033113479614,
          2.110328435897827,
          0.41968101263046265,
          -1.2836557626724243,
          -0.5922660231590271,
          -2.3526716232299805,
          1.8401545286178589,
          -0.7336005568504333,
          2.546778440475464,
          -1.0606027841567993,
          -1.1406912803649902,
          -2.044001579284668,
          -0.017867915332317352,
          1.4420936107635498,
          1.5160948038101196,
          -0.1167893260717392,
          -1.3758431673049927,
          3.061325788497925,
          -0.2008456587791443,
          0.5488453507423401,
          -0.31247439980506897,
          0.433833509683609,
          2.0223207473754883,
          -2.99539852142334,
          1.7766094207763672,
          -0.5491416454315186,
          1.6137385368347168,
          2.3263537883758545,
          1.829512119293213,
          -1.3334230184555054,
          0.8619751334190369,
          0.8967365026473999,
          0.8225036859512329,
          3.886014461517334,
          -2.030447483062744,
          0.8185603618621826,
          -2.347428560256958,
          -0.7494152188301086,
          0.19667194783687592,
          3.7345988750457764,
          -1.8986982107162476,
          -0.09745517373085022,
          -0.2209005057811737,
          0.9807382822036743,
          -0.6217717528343201,
          -1.6782410144805908,
          1.3203850984573364,
          1.9186521768569946,
          0.7106420993804932,
          2.748403787612915,
          2.2634897232055664,
          2.6796398162841797,
          0.2195056676864624,
          1.8841209411621094,
          0.678930401802063,
          -1.4968478679656982,
          0.5781978964805603,
          0.5084202289581299,
          0.3715371787548065,
          -0.5962949395179749,
          -0.3829641044139862,
          -0.2913569211959839,
          1.2182382345199585,
          0.8622790575027466,
          0.29606422781944275,
          1.0346009731292725,
          -0.5567934513092041,
          -1.1133043766021729,
          0.3470298945903778,
          -2.7517921924591064,
          -0.02464503049850464,
          1.0159986019134521,
          1.3271234035491943,
          -0.014026498422026634,
          0.48909029364585876,
          0.11140840500593185,
          -1.8992096185684204,
          0.18662604689598083,
          -0.01803402416408062,
          -2.145265579223633,
          -0.3826225697994232,
          0.634681224822998,
          0.872792661190033,
          -1.534910798072815,
          -1.4246488809585571,
          -0.3365537226200104,
          0.4609244763851166,
          0.7863190770149231,
          -0.2453191578388214,
          -1.0903434753417969,
          -0.7127800583839417,
          -0.17260771989822388,
          0.18493372201919556,
          -0.2870689034461975,
          -0.6757321953773499,
          -2.2327256202697754,
          -0.859738826751709,
          -1.492049217224121,
          -0.24454623460769653,
          1.5844312906265259,
          -0.16542206704616547,
          1.4178210496902466,
          -0.3986995816230774,
          -1.8850432634353638,
          -0.7079758048057556,
          -1.5974026918411255,
          2.9984207153320312,
          1.6525968313217163,
          -1.0734370946884155,
          -2.6530539989471436,
          -1.1209944486618042,
          -0.5473940372467041,
          -4.20452356338501,
          0.8756541013717651,
          -3.5818164348602295,
          -0.5142389535903931,
          -0.10294032841920853,
          -0.09926556050777435,
          -2.3007500171661377,
          -3.1408939361572266,
          -0.7883610129356384,
          -0.3852730691432953,
          -2.3642380237579346,
          1.7540454864501953,
          1.3814970254898071,
          -0.7657573223114014,
          -1.4892159700393677,
          -1.618109107017517,
          0.6018238067626953,
          -0.34593918919563293,
          1.9131598472595215,
          -0.11239750683307648,
          -0.4291544258594513,
          0.7612994313240051,
          -0.22536304593086243,
          1.329578161239624,
          -0.6114166975021362,
          -0.10450197011232376,
          3.5143563747406006,
          -1.0882720947265625,
          0.45662909746170044,
          -1.5184751749038696,
          0.599830687046051,
          1.8026903867721558,
          2.8867547512054443,
          -0.20939579606056213,
          -0.30206599831581116,
          -2.028008460998535,
          1.4193530082702637,
          -0.6234436631202698,
          1.70661199092865,
          -0.156587153673172,
          -2.8811817169189453,
          -1.0544965267181396,
          0.5760768055915833,
          0.3587554693222046,
          -2.234262704849243,
          2.677325963973999,
          -0.5583204030990601,
          -1.2177437543869019,
          -0.6085770130157471,
          1.73708176612854,
          0.8954675197601318,
          -1.9612171649932861,
          -0.3360642194747925,
          -2.0066349506378174,
          -1.5751893520355225,
          -0.5624619126319885,
          0.303383469581604,
          0.040738001465797424,
          2.469604730606079,
          -0.2821638584136963,
          -0.46862518787384033,
          -0.6830076575279236,
          -3.4635469913482666,
          0.6609958410263062,
          0.3060324192047119,
          -2.7542781829833984,
          0.4698133170604706,
          -1.731971263885498,
          0.28004026412963867,
          -0.8570239543914795,
          -0.06255611777305603,
          2.8799097537994385,
          0.508857250213623,
          2.0441412925720215,
          0.5572019815444946,
          0.3733784854412079,
          -0.381894052028656,
          -0.4384797513484955,
          0.43994495272636414,
          -1.044266700744629,
          2.39479923248291,
          0.18613988161087036,
          0.32461920380592346,
          -0.7556476593017578,
          -2.9860928058624268,
          -1.3114489316940308,
          -0.2512804865837097,
          0.7279584407806396,
          -1.7321360111236572,
          -0.9744957089424133,
          -2.561558485031128,
          0.29562580585479736,
          -0.3289060592651367,
          -0.8794126510620117,
          -1.80838143825531,
          0.5999289155006409,
          -1.0252549648284912,
          -0.349331796169281,
          1.697404384613037,
          1.2281948328018188,
          -0.548762857913971,
          0.471352756023407,
          2.7629075050354004,
          -0.6614916920661926,
          2.5349740982055664,
          0.8362073302268982,
          3.5006282329559326,
          2.1717607975006104,
          -0.29070845246315,
          -3.7189252376556396,
          0.6386805176734924,
          -0.3707236051559448,
          -1.0063374042510986,
          -0.9412513971328735,
          2.342946767807007,
          -1.2421263456344604,
          -0.6023926734924316,
          -0.5645487904548645,
          0.9896749258041382,
          -1.6982975006103516,
          0.5697302222251892,
          1.9300129413604736,
          -0.6308026313781738,
          1.7394680976867676,
          0.3149401843547821,
          1.8188408613204956,
          0.9770606756210327,
          1.8225160837173462,
          -0.03212917223572731,
          0.2554522752761841,
          -1.4914860725402832,
          3.259364366531372,
          1.0524189472198486,
          0.161686971783638,
          -1.4414440393447876,
          2.221125841140747,
          1.2227320671081543,
          -0.1052020937204361,
          1.5369927883148193,
          3.5312623977661133,
          0.1982259750366211,
          0.19256889820098877,
          -0.935950517654419,
          0.23702894151210785,
          -3.184054374694824,
          0.4471261501312256,
          -0.8662292957305908,
          2.486776828765869,
          1.7565300464630127,
          -0.05246797576546669,
          1.5311028957366943,
          3.490029811859131,
          3.713071584701538,
          1.4095150232315063,
          2.008277177810669,
          0.24315884709358215,
          1.7085975408554077,
          2.4346837997436523,
          0.18502996861934662,
          -1.1383812427520752,
          -0.114229716360569,
          -0.9903304576873779,
          0.07053521275520325,
          -1.293778896331787,
          -0.9022272229194641,
          -1.3347923755645752,
          0.9368861317634583,
          0.7338929176330566,
          -2.040741443634033,
          -0.7914297580718994,
          -1.3056846857070923,
          2.201112985610962,
          -0.9177842736244202,
          0.5427123308181763,
          -1.8207863569259644,
          -0.342683345079422,
          0.17267556488513947,
          1.5930004119873047,
          1.874869704246521,
          -2.1926491260528564,
          -1.8526549339294434,
          1.1867494583129883,
          -0.44375112652778625,
          1.9100650548934937,
          -0.10657913982868195,
          0.36290720105171204,
          2.672623634338379,
          -0.6209169626235962,
          1.0381696224212646,
          0.04485897347331047,
          0.7305653095245361,
          0.9570106863975525,
          -5.276553153991699,
          -0.9190208315849304,
          1.24016273021698,
          1.8942009210586548,
          -1.3373759984970093,
          1.3662495613098145,
          -2.1944897174835205,
          0.7610182762145996,
          -0.5527428984642029,
          2.783905029296875,
          -0.7017183899879456,
          -1.5256860256195068,
          0.773514449596405,
          0.31398001313209534,
          -1.1328377723693848,
          -1.9979095458984375,
          -0.40755659341812134,
          -0.044340331107378006,
          1.5241689682006836,
          0.0904109850525856,
          3.647024154663086,
          -1.5747090578079224,
          -1.8076331615447998,
          1.2977674007415771,
          2.4211161136627197,
          -0.6224611401557922,
          1.4339416027069092,
          0.6462464332580566,
          -0.22433236241340637,
          3.0359930992126465,
          0.42926928400993347,
          0.0879962146282196,
          -0.5215316414833069,
          -3.5141184329986572,
          2.136348247528076,
          0.37634339928627014,
          -0.8687357306480408,
          1.1076945066452026,
          1.1743547916412354,
          -1.0835723876953125,
          2.743705987930298,
          0.12133277207612991,
          -2.234828472137451,
          1.3406559228897095,
          -1.2162842750549316,
          1.6439805030822754,
          1.4400993585586548,
          -0.9298635721206665,
          -0.8867101073265076,
          0.2997523248195648,
          -0.528023898601532,
          -0.2817557454109192,
          -0.18628336489200592,
          -0.11301016062498093,
          0.21469061076641083,
          1.1658744812011719,
          0.5751661658287048,
          0.2567295730113983,
          0.863899827003479,
          -0.26091620326042175,
          -0.7330485582351685,
          0.7465417981147766,
          -1.0256611108779907,
          -0.5636154413223267,
          -0.7863625884056091,
          -1.5119162797927856,
          -0.1734004020690918,
          -0.082962766289711,
          -0.8056738972663879,
          0.2075977623462677,
          0.2561175227165222,
          -0.39217546582221985,
          -0.2986060380935669,
          3.7320096492767334,
          -0.6773675680160522,
          -2.4933242797851562,
          2.239245891571045,
          0.4193919897079468,
          -1.5597279071807861,
          2.137740135192871,
          2.7103147506713867,
          -0.6692962646484375,
          -0.4919036626815796,
          -1.5494941473007202,
          -1.197567105293274,
          3.410820245742798,
          -2.1278491020202637,
          -1.6550430059432983,
          -1.5593650341033936,
          0.2643308639526367,
          1.1907408237457275,
          -0.25467151403427124,
          0.09374744445085526,
          1.3599812984466553,
          0.11759722232818604,
          1.2028069496154785,
          2.6040985584259033,
          -2.2054696083068848,
          2.119196653366089,
          1.431558609008789,
          -0.923084557056427,
          3.0776309967041016,
          2.004134178161621,
          0.7467093467712402,
          2.5782358646392822,
          -0.3802299201488495,
          -0.24380382895469666,
          -1.9782695770263672,
          -2.3137800693511963,
          -0.8072985410690308,
          1.0729743242263794,
          -3.2442898750305176,
          -0.7542017102241516,
          0.9106221795082092,
          -1.1113474369049072,
          2.3123536109924316,
          0.05326998978853226,
          -1.1014946699142456,
          -0.30470576882362366,
          -1.5542227029800415,
          0.6830832362174988,
          2.2941296100616455,
          1.5281740427017212,
          -2.5769288539886475,
          -1.4928741455078125,
          -1.3251569271087646,
          -1.629525065422058,
          -0.5610218048095703,
          0.922485888004303,
          1.0898314714431763,
          -2.1384530067443848,
          0.46860188245773315,
          2.729888677597046,
          0.3337659537792206,
          -1.463410496711731,
          -4.277737140655518,
          0.09393314272165298,
          -1.1472752094268799,
          -0.5385900139808655,
          -0.7094464302062988,
          -0.666726291179657,
          -0.39032676815986633,
          1.1410527229309082,
          -3.105084180831909,
          1.7464064359664917,
          0.3863274157047272,
          -2.2244386672973633,
          -1.027293086051941,
          1.6296976804733276,
          -3.736917734146118,
          -0.7245796918869019,
          -1.8119661808013916,
          1.208797812461853,
          0.24661403894424438,
          -1.2636266946792603,
          -0.5158941149711609,
          -0.5610700845718384,
          0.2873983085155487,
          -0.12349226325750351,
          2.687673568725586,
          0.3638182580471039,
          0.6385799646377563,
          0.10044616460800171,
          0.8774054050445557,
          -0.9736352562904358,
          -0.8814021944999695,
          -3.599231719970703,
          0.6879807710647583,
          -0.4298177659511566,
          0.9993293285369873,
          0.43435338139533997,
          -1.2052104473114014,
          3.1768321990966797
        ]
      },
      "outputHidden": {
        "rows": 20,
        "columns": 20,
        "weights": [
          -0.28659045696258545,
          1.044960379600525,
          1.0762672424316406,
          1.6093127727508545,
          2.3478360176086426,
          -2.019507884979248,
          3.4905169010162354,
          -0.6698002815246582,
          0.14841915667057037,
          -0.12954019010066986,
          2.051455497741699,
          0.5923811197280884,
          -1.9109928607940674,
          -5.213685989379883,
          -3.1028647422790527,
          -2.9622316360473633,
          -0.9417926669120789,
          4.075840950012207,
          -5.706170082092285,
          1.1842366456985474,
          -2.5686867237091064,
          0.03783079981803894,
          -1.754064679145813,
          -5.195836544036865,
          -1.912745475769043,
          -0.4605097770690918,
          -0.4425050914287567,
          5.351064205169678,
          -3.578988790512085,
          1.375893473625183,
          -4.873404026031494,
          -3.8427224159240723,
          7.581895351409912,
          -1.8700472116470337,
          -0.8006898164749146,
          0.09630931913852692,
          2.7563884258270264,
          0.2030283510684967,
          -1.7003732919692993,
          -2.7022359371185303,
          -2.0283143520355225,
          -0.4929114878177643,
          -0.6025233864784241,
          1.4545365571975708,
          0.7229793071746826,
          0.8444458246231079,
          2.0822343826293945,
          -0.6792664527893066,
          0.0401269905269146,
          -3.1933300495147705,
          1.113784670829773,
          0.9652766585350037,
          1.3719849586486816,
          1.088651180267334,
          -2.558917760848999,
          2.150707483291626,
          -3.2491021156311035,
          -2.310443639755249,
          -0.6884720325469971,
          -2.3108649253845215,
          3.0346527099609375,
          -4.229372024536133,
          0.8823567032814026,
          2.041492462158203,
          0.1119471937417984,
          0.09818868339061737,
          -1.626287579536438,
          -1.7872949838638306,
          3.1562845706939697,
          0.5930209159851074,
          -0.28238776326179504,
          0.03301306441426277,
          5.821294784545898,
          -0.35917896032333374,
          0.3912058472633362,
          1.757189393043518,
          -1.224718451499939,
          2.2357301712036133,
          -1.5535422563552856,
          -5.056560039520264,
          5.264624118804932,
          6.443747520446777,
          -3.3675687313079834,
          -1.9388513565063477,
          3.640047311782837,
          1.4385672807693481,
          2.596705913543701,
          -2.1313750743865967,
          -3.3400866985321045,
          -3.090663433074951,
          1.9685578346252441,
          1.4044551849365234,
          2.202188730239868,
          -3.8086583614349365,
          2.4535861015319824,
          -3.183223009109497,
          -1.1329175233840942,
          3.085451364517212,
          -5.758700847625732,
          -1.272491693496704,
          2.941178798675537,
          1.2956525087356567,
          1.1170563697814941,
          -1.9487155675888062,
          -0.01616963930428028,
          -3.0885820388793945,
          0.5064454078674316,
          -2.7045984268188477,
          1.5567158460617065,
          0.5681105852127075,
          -0.6841868162155151,
          -4.081061363220215,
          -1.3125841617584229,
          1.0948127508163452,
          -0.12091506272554398,
          1.160873532295227,
          -2.374568462371826,
          2.807415246963501,
          -2.6828649044036865,
          2.5203099250793457,
          -0.17672514915466309,
          -3.4070723056793213,
          2.1485185623168945,
          -1.8481695652008057,
          1.4123717546463013,
          -3.300522804260254,
          -0.9767021536827087,
          -0.2805252969264984,
          -2.9210782051086426,
          0.8980501890182495,
          1.9413506984710693,
          1.0925813913345337,
          -3.3188369274139404,
          2.3600730895996094,
          -1.5956783294677734,
          2.7734618186950684,
          -1.488973617553711,
          -0.11321909725666046,
          -3.7049851417541504,
          3.075500965118408,
          -1.882977843284607,
          -3.0404324531555176,
          3.1951441764831543,
          -1.4256083965301514,
          -1.0344491004943848,
          -2.431586742401123,
          1.9752546548843384,
          -6.013541221618652,
          -0.03758867830038071,
          0.9199395775794983,
          -0.3418911397457123,
          3.5084352493286133,
          -1.9648239612579346,
          0.11605580896139145,
          -3.276603937149048,
          -0.9982144832611084,
          -2.707573175430298,
          1.6470208168029785,
          1.28408944606781,
          -1.196845293045044,
          -0.9693354368209839,
          -2.319444179534912,
          4.7498698234558105,
          4.354864597320557,
          1.1702051162719727,
          -1.3495081663131714,
          -1.2572914361953735,
          0.43579787015914917,
          -0.13396696746349335,
          2.6635782718658447,
          1.6775763034820557,
          -2.0649161338806152,
          -0.8041831851005554,
          -1.486276388168335,
          -1.7455154657363892,
          -0.8032068610191345,
          -1.5065357685089111,
          -1.1678684949874878,
          -0.3449006676673889,
          -1.097765326499939,
          0.2022208571434021,
          1.2065149545669556,
          1.6104243993759155,
          2.915931463241577,
          -3.249246835708618,
          1.5138802528381348,
          -1.6954065561294556,
          1.2572274208068848,
          1.0310578346252441,
          1.45278000831604,
          -1.9337204694747925,
          -0.39160123467445374,
          3.522739887237549,
          0.5183262228965759,
          -1.3044973611831665,
          -0.5479942560195923,
          2.179281711578369,
          0.6808705925941467,
          1.1235231161117554,
          -1.8001940250396729,
          -1.9531517028808594,
          5.090784549713135,
          -1.2596789598464966,
          -0.10109313577413559,
          2.0740063190460205,
          2.5499658584594727,
          0.31854480504989624,
          0.8784355521202087,
          -3.958645820617676,
          1.667044997215271,
          0.5122460126876831,
          -0.9456050395965576,
          0.12156547605991364,
          1.2094142436981201,
          0.16165055334568024,
          -0.5563311576843262,
          1.793247938156128,
          -1.011554479598999,
          0.5956801772117615,
          -2.524097442626953,
          2.839162826538086,
          -1.7973456382751465,
          1.9122498035430908,
          -2.633798360824585,
          1.0277315378189087,
          0.4917815625667572,
          0.9599323868751526,
          -0.6597744226455688,
          1.7438956499099731,
          -1.01216459274292,
          -0.7783663272857666,
          1.8011399507522583,
          1.2180198431015015,
          -2.0953147411346436,
          3.849700450897217,
          -0.6560968160629272,
          0.33399584889411926,
          2.9397213459014893,
          0.5504463911056519,
          -1.2252165079116821,
          -0.6957720518112183,
          -2.031698226928711,
          4.909778594970703,
          -0.5782055854797363,
          0.13986088335514069,
          -0.43796902894973755,
          1.227579116821289,
          2.6328253746032715,
          2.662327527999878,
          -1.0273635387420654,
          -0.16936801373958588,
          -1.9790294170379639,
          1.0303665399551392,
          -0.39622557163238525,
          0.4819619357585907,
          7.94116735458374,
          -6.02826452255249,
          2.256714105606079,
          -0.4454697370529175,
          0.9435963034629822,
          -2.0432941913604736,
          0.35954904556274414,
          -4.28329610824585,
          -3.1447858810424805,
          2.06229305267334,
          2.351071357727051,
          -2.606379747390747,
          -0.5366926789283752,
          -2.1049602031707764,
          -1.663723349571228,
          -2.745124101638794,
          2.6655495166778564,
          1.8712223768234253,
          1.7481415271759033,
          -0.7710049748420715,
          -1.9039123058319092,
          1.028499722480774,
          2.994985342025757,
          -0.7072610855102539,
          -1.9780526161193848,
          1.8622467517852783,
          0.5958642959594727,
          -2.524510383605957,
          -1.7519605159759521,
          0.160493865609169,
          0.4105754792690277,
          -3.121236562728882,
          1.1457223892211914,
          -2.0803534984588623,
          -1.6315540075302124,
