{
  "type": "LSTM",
  "options": {
    "inputSize": 25,
    "inputRange": 25,
    "hiddenLayers": [
      20,
      20
    ],
    "outputSize": 25,
    "decayRate": 0.999,
    "smoothEps": 1e-8,
    "regc": 0.000001,
    "clipval": 5,
    "maxPredictionLength": 100,
    "dataFormatter": {
      "indexTable": {
        "s": 0,
        "i": 1,
        "n": 2,
        "o": 3,
        " ": 4,
        "k": 5,
        "a": 6,
        "C": 7,
        "e": 8,
        "B": 9,
        "t": 10,
        "h": 11,
        "l": 12,
        "b": 13,
        "m": 14,
        "u": 15,
        "g": 16,
        "r": 17,
        "w": 18,
        "p": 19,
        ",": 20,
        "d": 21,
        "stop-input": 22,
        "start-output": 23,
        "unrecognized": 24
      },
      "characterTable": {
        "0": "s",
        "1": "i",
        "2": "n",
        "3": "o",
        "4": " ",
        "5": "k",
        "6": "a",
        "7": "C",
        "8": "e",
        "9": "B",
        "10": "t",
        "11": "h",
        "12": "l",
        "13": "b",
        "14": "m",
        "15": "u",
        "16": "g",
        "17": "r",
        "18": "w",
        "19": "p",
        "20": ",",
        "21": "d",
        "22": null,
        "23": null,
        "24": null
      },
      "values": [
        {
          "input": "sino ka",
          "output": "ako si Cookie Bot"
        },
        {
          "input": "hello",
          "output": "baket"
        },
        {
          "input": "kamusta ka",
          "output": "is akong robot na wlang emotion pero, maganda naman ang aking araw"
        }
      ],
      "characters": [
        "s",
        "i",
        "n",
        "o",
        " ",
        "k",
        "a",
        "C",
        "e",
        "B",
        "t",
        "h",
        "l",
        "b",
        "m",
        "u",
        "g",
        "r",
        "w",
        "p",
        ",",
        "d",
        "stop-input",
        "start-output",
        "unrecognized"
      ],
      "specialIndexes": [
        22,
        23,
        24
      ]
    }
  },
  "trainOpts": {
    "iterations": 1000,
    "errorThresh": 0.005,
    "logPeriod": 10,
    "learningRate": 0.01,
    "callbackPeriod": 10,
    "timeout": "Infinity"
  },
  "input": {
    "rows": 26,
    "columns": 25,
    "weights": [
      0.458419531583786,
      1.5078622102737427,
      1.1544668674468994,
      2.2966535091400146,
      2.352952480316162,
      0.30543646216392517,
      -2.6595189571380615,
      1.1833102703094482,
      -1.2568169832229614,
      0.3998076021671295,
      -2.5274219512939453,
      -1.284454107284546,
      -1.4221051931381226,
      -2.060727119445801,
      0.7363560199737549,
      -0.690500795841217,
      -3.4513072967529297,
      0.9894077777862549,
      0.05068686231970787,
      0.4003940224647522,
      1.4652947187423706,
      0.001945548690855503,
      -0.4959827959537506,
      0.08872540295124054,
      -4.512054920196533,
      1.6917598247528076,
      1.3360382318496704,
      1.9783903360366821,
      0.17182162404060364,
      -0.3011675775051117,
      -0.3421737849712372,
      2.215813159942627,
      -0.20130111277103424,
      -0.2981056869029999,
      -0.9908777475357056,
      0.2630217671394348,
      -1.808568000793457,
      0.20814259350299835,
      -0.628565788269043,
      -3.9987070560455322,
      -0.7663449048995972,
      1.3433873653411865,
      -2.437511444091797,
      2.100062370300293,
      1.4134682416915894,
      2.204280138015747,
      -0.35789477825164795,
      -1.0269930362701416,
      0.7829532623291016,
      -0.9503362774848938,
      0.3547899127006531,
      1.8109785318374634,
      2.155113935470581,
      1.0924265384674072,
      1.5506654977798462,
      2.494264602661133,
      -1.573914885520935,
      0.13731546700000763,
      -4.422905921936035,
      1.1052672863006592,
      -1.8226021528244019,
      -2.122843027114868,
      -4.433455944061279,
      -1.4318053722381592,
      -2.288456916809082,
      2.6571426391601562,
      -3.394918918609619,
      -1.1013058423995972,
      3.5214757919311523,
      0.14268580079078674,
      -0.9255532026290894,
      -1.4595693349838257,
      -1.9168205261230469,
      -0.06483795493841171,
      -1.636252999305725,
      -0.20820793509483337,
      1.4620020389556885,
      -1.4823734760284424,
      -1.1439129114151,
      0.19833362102508545,
      -0.8523337841033936,
      -0.39906373620033264,
      1.7483776807785034,
      -0.7164567112922668,
      -0.8839465975761414,
      1.2724661827087402,
      2.617523431777954,
      -2.8520097732543945,
      -0.48922067880630493,
      1.5600534677505493,
      0.7197643518447876,
      -2.9462387561798096,
      -4.110243797302246,
      -2.9123728275299072,
      4.463159561157227,
      -3.4037275314331055,
      -0.22320349514484406,
      -0.48094475269317627,
      -1.572274923324585,
      -1.7415893077850342,
      1.012932538986206,
      -0.989324688911438,
      2.668111562728882,
      1.7784137725830078,
      -1.9149855375289917,
      0.12128909677267075,
      -1.578072428703308,
      2.706484079360962,
      -0.41415101289749146,
      1.653639554977417,
      1.128748893737793,
      -1.3476154804229736,
      -0.09763387590646744,
      -0.3618190586566925,
      -0.2110127955675125,
      0.10572094470262527,
      0.4367842674255371,
      0.8010334968566895,
      0.1487082839012146,
      -0.1879381239414215,
      0.8132086396217346,
      -0.5967400074005127,
      -3.3466134071350098,
      0.3293221592903137,
      0.29801324009895325,
      1.6169061660766602,
      2.413940668106079,
      -0.5187985301017761,
      1.5267362594604492,
      -1.048073649406433,
      7.0328850746154785,
      -0.3154210150241852,
      -0.5090978741645813,
      0.47481003403663635,
      -0.18153300881385803,
      2.262514352798462,
      2.510911226272583,
      0.12230799347162247,
      -0.03249761089682579,
      -0.8858689069747925,
      -0.07456329464912415,
      1.7582473754882812,
      0.721875786781311,
      -1.0647337436676025,
      -0.5974144339561462,
      0.2155623883008957,
      0.3393402099609375,
      -0.6775029301643372,
      -0.1269029974937439,
      1.1373405456542969,
      0.7369170188903809,
      -5.060873985290527,
      -8.50661849975586,
      2.306544780731201,
      1.1150143146514893,
      2.380847930908203,
      2.0695033073425293,
      -1.2968707084655762,
      -0.4067564308643341,
      0.50374436378479,
      -1.3612407445907593,
      -2.010085105895996,
      0.576675295829773,
      0.21314682066440582,
      5.1099958419799805,
      1.6487635374069214,
      -1.4473183155059814,
      1.3091152906417847,
      -3.053318500518799,
      0.34098929166793823,
      0.21672703325748444,
      0.7316917181015015,
      10.187751770019531,
      -1.3674393892288208,
      -0.6694771647453308,
      0.9377657771110535,
      -0.7563390731811523,
      -0.18757137656211853,
      0.5950472950935364,
      -1.4182363748550415,
      2.2443881034851074,
      0.2746654748916626,
      -1.519706130027771,
      0.2157682329416275,
      2.1289122104644775,
      2.2171173095703125,
      2.81657075881958,
      0.7323055267333984,
      -0.7248257994651794,
      1.4887951612472534,
      -0.8118497729301453,
      -0.023786233738064766,
      3.541409969329834,
      0.835269570350647,
      -0.6262368559837341,
      2.372565746307373,
      0.47366201877593994,
      1.6875594854354858,
      -0.07932800054550171,
      2.064941167831421,
      0.30886054039001465,
      2.108992576599121,
      7.898083686828613,
      9.855677604675293,
      1.161861777305603,
      1.4692896604537964,
      2.7921817302703857,
      0.2524697482585907,
      -2.552337408065796,
      -1.2539070844650269,
      -2.969776153564453,
      0.3997999131679535,
      4.0707221031188965,
      -2.87337064743042,
      3.3540217876434326,
      -1.5251119136810303,
      -1.6947771310806274,
      7.691716194152832,
      4.97915506362915,
      -1.7046880722045898,
      5.5703325271606445,
      -0.4894566833972931,
      -6.88975191116333,
      2.9280588626861572,
      0.9031336307525635,
      0.026259200647473335,
      0.6646528840065002,
      2.305370807647705,
      5.312430381774902,
      2.946889638900757,
      -3.1806373596191406,
      -1.3526458740234375,
      2.2612812519073486,
      -0.7454206943511963,
      -3.0412051677703857,
      -3.314131736755371,
      -0.1569836139678955,
      -0.39717018604278564,
      0.11288706958293915,
      -1.3830190896987915,
      1.8427735567092896,
      -0.10707790404558182,
      -0.9043130874633789,
      0.20203420519828796,
      -0.7307698726654053,
      -2.044832706451416,
      -0.9578982591629028,
      -1.3964309692382812,
      1.2450112104415894,
      -3.1499433517456055,
      1.1038187742233276,
      -5.046615123748779,
      -4.917961120605469,
      -5.872269153594971,
      -3.0329720973968506,
      2.0308449268341064,
      -4.261201858520508,
      3.5907504558563232,
      2.503744125366211,
      11.241738319396973,
      6.1207194328308105,
      -0.7778558135032654,
      -2.972137451171875,
      -4.221137523651123,
      5.515279293060303,
      0.4467315673828125,
      4.209465503692627,
      3.4446778297424316,
      -6.872342586517334,
      -1.9148908853530884,
      3.3283369541168213,
      -3.86544132232666,
      1.1420679092407227,
      -6.893348217010498,
      0.1715780794620514,
      0.18347612023353577,
      -3.3286144733428955,
      -1.9777830839157104,
      -2.0650734901428223,
      2.5171234607696533,
      0.8838560581207275,
      -4.219148635864258,
      0.4835072457790375,
      0.8560134768486023,
      4.11916446685791,
      -0.6600683331489563,
      -1.0037240982055664,
      -2.209906816482544,
      0.9499221444129944,
      -3.492743968963623,
      0.34205809235572815,
      -0.2726355791091919,
      4.064857006072998,
      -2.056737184524536,
      -1.9323703050613403,
      0.6641900539398193,
      -2.596055030822754,
      2.279000759124756,
      -5.544296741485596,
      -1.3444221019744873,
      -0.9770635366439819,
      1.5319372415542603,
      -3.5288097858428955,
      3.128880500793457,
      -4.589259624481201,
      0.05164836347103119,
      0.9645320773124695,
      1.3675285577774048,
      4.689990997314453,
      -0.5428910851478577,
      -1.036719799041748,
      3.1007161140441895,
      -6.406557083129883,
      -0.7926000952720642,
      2.672133445739746,
      -2.7559711933135986,
      1.7136696577072144,
      8.411765098571777,
      -8.33704948425293,
      -2.1025426387786865,
      -4.445655822753906,
      -4.453813076019287,
      -0.790648877620697,
      2.1903746128082275,
      -11.198472023010254,
      4.3301520347595215,
      0.24672217667102814,
      -2.4332785606384277,
      1.590727686882019,
      5.236818790435791,
      0.485222727060318,
      -0.4233626127243042,
      1.3487530946731567,
      -4.179841995239258,
      -3.9343361854553223,
      -0.36205926537513733,
      4.852329730987549,
      1.0122686624526978,
      -1.6568390130996704,
      2.807133913040161,
      4.149270057678223,
      -3.0739388465881348,
      2.5003678798675537,
      -1.966010332107544,
      0.9361042380332947,
      -0.3006032407283783,
      -6.671863079071045,
      4.409162998199463,
      0.3651949465274811,
      -0.5694957971572876,
      0.08334986865520477,
      -2.0268161296844482,
      -1.4329568147659302,
      -2.2592480182647705,
      -1.9304901361465454,
      -3.593686819076538,
      1.5018430948257446,
      2.040417194366455,
      1.4350420236587524,
      1.0626022815704346,
      3.169449806213379,
      8.070222854614258,
      -0.5028719902038574,
      1.9458125829696655,
      -0.36218148469924927,
      -1.1283073425292969,
      1.171697974205017,
      -1.0306580066680908,
      -3.927229166030884,
      0.23026280105113983,
      -12.69191837310791,
      0.8727083206176758,
      0.3757321238517761,
      -1.7772778272628784,
      -2.345508575439453,
      -1.9506853818893433,
      -2.0933704376220703,
      1.6951476335525513,
      0.03529969975352287,
      1.8079938888549805,
      -3.222026824951172,
      0.18703651428222656,
      2.874380111694336,
      -4.576416015625,
      0.7546932101249695,
      -4.444391250610352,
      4.403782367706299,
      0.08245096355676651,
      1.963724136352539,
      -0.028539901599287987,
      5.442234039306641,
      -4.38731050491333,
      1.2295246124267578,
      0.2117825299501419,
      -1.6343482732772827,
      -1.4216253757476807,
      -2.9200730323791504,
      -4.230956077575684,
      -3.122584104537964,
      -0.44517287611961365,
      -1.4161696434020996,
      0.24447457492351532,
      1.1440469026565552,
      1.3117073774337769,
      4.124281883239746,
      -0.09952322393655777,
      -0.5689966678619385,
      1.5664470195770264,
      -5.207420349121094,
      1.6727992296218872,
      -2.45477557182312,
      1.026321291923523,
      -4.6250762939453125,
      -1.7252519130706787,
      -0.063623808324337,
      -1.90087890625,
      -9.247485160827637,
      2.278076171875,
      -0.38701680302619934,
      2.803652763366699,
      -3.9877898693084717,
      -4.008457183837891,
      -2.093862533569336,
      1.2704967260360718,
      -7.022531032562256,
      1.7572391033172607,
      -1.0243736505508423,
      0.4728020131587982,
      0.0783129632472992,
      0.8256204128265381,
      0.041526004672050476,
      -0.018289269879460335,
      -3.233698844909668,
      -0.41195663809776306,
      -1.409672498703003,
      -1.5709083080291748,
      -0.5778040885925293,
      -3.4683332443237305,
      -1.1587704420089722,
      0.5097466111183167,
      -0.8284768462181091,
      -1.345163106918335,
      0.7686441540718079,
      -1.3238773345947266,
      2.4422011375427246,
      -4.009389400482178,
      1.7309705018997192,
      0.5306180119514465,
      3.7145862579345703,
      0.431549608707428,
      -2.5060739517211914,
      2.759009599685669,
      1.1608467102050781,
      -3.9845471382141113,
      0.28053516149520874,
      -2.200873374938965,
      2.7173454761505127,
      -0.8213743567466736,
      1.4619534015655518,
      -2.791184902191162,
      -0.34292101860046387,
      2.5852811336517334,
      3.4463953971862793,
      3.3038368225097656,
      2.773817539215088,
      1.798919677734375,
      5.872644901275635,
      1.7770240306854248,
      -0.543811559677124,
      -2.746750593185425,
      0.15785107016563416,
      -1.0924527645111084,
      -1.283902883529663,
      -1.911763072013855,
      3.400918960571289,
      -0.5328587889671326,
      -2.717057943344116,
      -7.286897659301758,
      -0.3128642439842224,
      -0.31250497698783875,
      -1.7152771949768066,
      5.830833911895752,
      1.5576783418655396,
      -1.5758038759231567,
      -0.42471131682395935,
      -0.8067291975021362,
      0.5370895266532898,
      0.7745689153671265,
      -1.4401239156723022,
      1.0048378705978394,
      2.366180658340454,
      -0.4736710488796234,
      -0.5572293996810913,
      -3.7646899223327637,
      -0.4283944070339203,
      0.7727947235107422,
      -4.2305707931518555,
      3.5817294120788574,
      -0.6966753005981445,
      -0.578960120677948,
      -2.4087090492248535,
      0.39108699560165405,
      -11.568618774414062,
      1.742141604423523,
      -0.9162991046905518,
      -16.669466018676758,
      0.15191969275474548,
      3.479689121246338,
      1.400232195854187,
      0.4882664084434509,
      -1.508154273033142,
      -2.6424036026000977,
      -2.163717746734619,
      1.2443691492080688,
      3.620244026184082,
      3.424077033996582,
      -1.9911787509918213,
      -3.183757781982422,
      -8.700545310974121,
      -0.22004131972789764,
      -4.495511531829834,
      -0.5881783366203308,
      9.579172134399414,
      4.935548305511475,
      -2.6663284301757812,
      -8.196435928344727,
      -0.2872246205806732,
      -3.0035643577575684,
      1.9094722270965576,
      -6.183917045593262,
      -3.0674450397491455,
      -1.641852617263794,
      0.010934104211628437,
      2.271476984024048,
      8.012961387634277,
      7.571928024291992,
      -4.698650360107422,
      -0.8248384594917297,
      -0.9031790494918823,
      -3.4805142879486084,
      -1.4242278337478638,
      7.1074957847595215,
      0.8011664152145386,
      -0.9885885715484619,
      -1.127610445022583,
      -0.177581325173378,
      -2.1354291439056396,
      -4.4161272048950195,
      -10.083513259887695,
      4.671567440032959,
      6.0797038078308105,
      -3.1680498123168945,
      3.0407676696777344,
      -1.1677134037017822,
      -8.353981018066406,
      -3.2386953830718994,
      -5.410459518432617,
      2.822540044784546,
      4.220389366149902,
      0.09259786456823349,
      -5.1150712966918945,
      0.461882621049881,
      1.2384120225906372,
      1.9462653398513794,
      6.012027740478516,
      -15.42989444732666,
      5.935398101806641,
      -1.1237404346466064,
      4.894432067871094,
      -0.19629447162151337,
      0.5778600573539734,
      13.374555587768555,
      -3.4188904762268066,
      3.711550235748291,
      5.6180548667907715,
      -0.6449515223503113,
      -3.3247733116149902,
      3.233226776123047,
      -3.3319923877716064,
      0.2939161956310272,
      0.4081058204174042,
      1.1301952600479126,
      -2.298327684402466,
      -1.854546070098877,
      -0.4472746253013611,
      -1.3496382236480713,
      -1.2985384464263916,
      -1.4032052755355835,
      -0.8352968692779541,
      -3.6733241081237793,
      1.7620573043823242,
      -1.0746656656265259,
      -0.2626858055591583,
      1.2977310419082642,
      1.339937448501587,
      0.7473545074462891,
      0.2543942928314209,
      -4.219153881072998,
      -1.2679262161254883,
      -0.7125294208526611,
      4.336387634277344,
      1.0469837188720703,
      1.6785123348236084,
      0.7852034568786621,
      1.2316150665283203,
      -0.5985018610954285,
      -0.3944108486175537,
      -0.7733559608459473,
      -0.5785697102546692,
      -1.655312180519104,
      -1.2356971502304077,
      -0.13407424092292786,
      0.5198304653167725,
      -2.0158233642578125,
      1.8237887620925903,
      0.43092697858810425,
      -0.16424711048603058,
      -1.0141605138778687,
      0.47059112787246704,
      -0.41253045201301575,
      -0.313716858625412,
      0.0664561316370964,
      -0.5839104652404785,
      1.2496418952941895,
      -0.1788819283246994,
      -2.9872047901153564,
      -0.4816822111606598,
      -0.5709800720214844,
      -1.80024254322052,
      -3.3323869705200195,
      4.005705833435059,
      -0.25615933537483215,
      0.3643529415130615,
      3.501519203186035,
      1.9337270259857178,
      3.0004067420959473,
      1.8161661624908447,
      4.959044933319092,
      1.0349154472351074,
      1.893984079360962,
      -2.4333250522613525,
      4.812588691711426,
      1.9874162673950195,
      2.178471803665161,
      -5.2842183113098145,
      1.1678467988967896,
      2.6740379333496094,
      -0.6536930203437805,
      -0.12142623960971832,
      1.4491783380508423
    ]
  },
  "hiddenLayers": [
    {
      "inputMatrix": {
        "rows": 20,
        "columns": 25,
        "weights": [
          0.0868692472577095,
          1.4760644435882568,
          -1.8952902555465698,
          -0.9416401386260986,
          -3.227485418319702,
          0.9382767677307129,
          -0.32347050309181213,
          -2.241313934326172,
          4.531481742858887,
          2.452141284942627,
          3.4458870887756348,
          2.5507493019104004,
          0.6744092106819153,
          -0.08970998972654343,
          0.3488992154598236,
          -1.2583515644073486,
          2.6101486682891846,
          0.2387956976890564,
          0.23251749575138092,
          -2.228214979171753,
          -0.2729880213737488,
          -1.100821614265442,
          1.8661218881607056,
          -0.9803284406661987,
          -0.3788905739784241,
          -0.4025282859802246,
          -2.8106133937835693,
          0.359835147857666,
          1.3062491416931152,
          0.4942196309566498,
          -2.174670696258545,
          0.9212042093276978,
          0.10466624796390533,
          -2.820925235748291,
          -0.3975328207015991,
          -2.2182695865631104,
          -3.114105701446533,
          -0.3037355840206146,
          -1.9452710151672363,
          1.1984304189682007,
          1.559913992881775,
          -1.8429771661758423,
          -1.780754566192627,
          -1.1183334589004517,
          2.5352864265441895,
          0.6473597884178162,
          -1.762048602104187,
          -0.32941505312919617,
          1.5145113468170166,
          0.6894529461860657,
          0.22902579605579376,
          1.086564540863037,
          1.807396411895752,
          1.6428098678588867,
          3.214279890060425,
          -1.7752383947372437,
          -0.7978397011756897,
          0.8253997564315796,
          -1.1801836490631104,
          -1.9483798742294312,
          -1.8492940664291382,
          -1.3614144325256348,
          -1.9445327520370483,
          -0.5031058192253113,
          -0.6916523575782776,
          0.7007815837860107,
          -1.5116899013519287,
          -0.9057775139808655,
          0.6601816415786743,
          2.5480220317840576,
          -0.3919917047023773,
          -0.7514398694038391,
          -1.254705786705017,
          1.524574637413025,
          -2.269108533859253,
          1.8519786596298218,
          -1.3051069974899292,
          -0.18718747794628143,
          -5.065230369567871,
          -3.7310237884521484,
          1.172744870185852,
          1.3418586254119873,
          -1.6114742755889893,
          0.12760813534259796,
          1.9127551317214966,
          2.7617506980895996,
          -0.7256106734275818,
          -0.12934042513370514,
          2.5963642597198486,
          -2.2132866382598877,
          -2.147263288497925,
          1.8435050249099731,
          -0.8185427784919739,
          -0.6003416180610657,
          0.1048133447766304,
          0.9802272915840149,
          1.0999211072921753,
          1.3926366567611694,
          -1.9374618530273438,
          2.2595813274383545,
          1.3901526927947998,
          0.5785648822784424,
          2.3014888763427734,
          -4.001805782318115,
          -1.2636979818344116,
          -0.4506583511829376,
          -0.7935513854026794,
          -0.204903244972229,
          -0.8199152946472168,
          0.39365825057029724,
          1.2214634418487549,
          -0.15774212777614594,
          -0.7218202948570251,
          -0.555279552936554,
          0.5740531086921692,
          0.8295505046844482,
          1.715337872505188,
          -2.9106297492980957,
          0.2094351351261139,
          0.9188754558563232,
          -0.29660502076148987,
          1.053432822227478,
          -1.6718988418579102,
          -0.5276870131492615,
          0.21199654042720795,
          0.5754685997962952,
          -2.185579299926758,
          1.8895856142044067,
          1.0709972381591797,
          2.669353723526001,
          2.0642240047454834,
          -1.4517329931259155,
          -0.259926974773407,
          -2.410895347595215,
          0.7594258785247803,
          -3.5349695682525635,
          -2.8217062950134277,
          1.1496632099151611,
          -0.3647470474243164,
          -2.025441884994507,
          5.127930164337158,
          -2.9345712661743164,
          -1.9237639904022217,
          1.0205278396606445,
          -0.755631685256958,
          1.11611807346344,
          -4.525744915008545,
          0.5474924445152283,
          -1.4468480348587036,
          -2.705289840698242,
          -0.21653129160404205,
          -1.7077594995498657,
          1.1139171123504639,
          -2.630636692047119,
          -0.2548791468143463,
          -3.510329484939575,
          0.9109629392623901,
          -0.4093613624572754,
          0.48808568716049194,
          -1.0236948728561401,
          -1.3360874652862549,
          0.45667555928230286,
          0.7111603617668152,
          0.9241233468055725,
          1.080879807472229,
          0.16140320897102356,
          1.596185564994812,
          -1.0493111610412598,
          -1.0788202285766602,
          -1.4078177213668823,
          -0.1944713145494461,
          0.550189733505249,
          -0.581683337688446,
          -1.0872325897216797,
          2.0391273498535156,
          0.29545488953590393,
          -1.6380451917648315,
          1.238209843635559,
          -3.127322196960449,
          -1.9689781665802002,
          1.819085955619812,
          -2.768911123275757,
          -0.3469577133655548,
          0.9202365279197693,
          1.9245332479476929,
          1.5547693967819214,
          0.8341763615608215,
          1.2705879211425781,
          1.5336825847625732,
          0.03019564226269722,
          -0.5514650344848633,
          0.4954855144023895,
          0.7951363325119019,
          -0.4201517105102539,
          -1.692825198173523,
          0.9262875318527222,
          3.047455072402954,
          -1.7413179874420166,
          -2.8710203170776367,
          2.611480474472046,
          -0.8480628728866577,
          0.10836043953895569,
          -1.4216629266738892,
          0.536027193069458,
          -1.5008763074874878,
          0.45418038964271545,
          0.25870150327682495,
          0.0992882028222084,
          4.068719387054443,
          3.207348108291626,
          4.895841121673584,
          1.214999794960022,
          -1.149114727973938,
          0.9181346297264099,
          -2.4843971729278564,
          -2.5022776126861572,
          1.121751308441162,
          1.9168860912322998,
          1.4557737112045288,
          -0.4590274691581726,
          -0.3301291763782501,
          1.291434645652771,
          -0.18785493075847626,
          1.347359538078308,
          -1.0342938899993896,
          0.38650140166282654,
          -0.17137151956558228,
          -0.1729452908039093,
          2.0814366340637207,
          -2.984050989151001,
          1.1251330375671387,
          -0.28852415084838867,
          -0.17009088397026062,
          3.0719993114471436,
          1.7435407638549805,
          1.8720687627792358,
          0.23079505562782288,
          2.6476075649261475,
          0.6745541095733643,
          2.983022451400757,
          -1.6955845355987549,
          2.116326093673706,
          2.3472962379455566,
          0.09717939794063568,
          -2.7621922492980957,
          1.493249535560608,
          1.445909857749939,
          -0.30241647362709045,
          0.7809275984764099,
          2.3583481311798096,
          0.8062815070152283,
          -2.649848461151123,
          1.9544990062713623,
          -0.46025359630584717,
          0.5265307426452637,
          -1.1305972337722778,
          -1.7186107635498047,
          0.3862060308456421,
          -1.5912392139434814,
          -0.9277355074882507,
          1.60244619846344,
          -2.4937853813171387,
          -2.905106782913208,
          -0.02653798647224903,
          -1.6849372386932373,
          -0.2329191118478775,
          0.17246778309345245,
          0.3790625035762787,
          -1.8515443801879883,
          1.630910873413086,
          -0.8266569375991821,
          -3.0387227535247803,
          -0.3920815587043762,
          0.07740021497011185,
          0.9912892580032349,
          0.49326053261756897,
          -0.03160881623625755,
          -0.9082158207893372,
          2.6832451820373535,
          2.3404927253723145,
          -0.21491460502147675,
          1.8656821250915527,
          0.46172434091567993,
          -0.8306931257247925,
          -1.7749953269958496,
          -1.5343220233917236,
          0.8442716598510742,
          -0.9202929735183716,
          -0.7595288157463074,
          -1.1751474142074585,
          0.5021231770515442,
          -2.6517724990844727,
          1.5635184049606323,
          -1.1187448501586914,
          1.4248634576797485,
          -1.9081707000732422,
          -1.7230662107467651,
          0.6936084032058716,
          1.474971055984497,
          -1.867608666419983,
          -1.7235063314437866,
          1.7338110208511353,
          2.1486434936523438,
          -0.3440442383289337,
          3.632450819015503,
          -2.8302674293518066,
          2.1352765560150146,
          4.322643280029297,
          -1.5398131608963013,
          -2.456141710281372,
          -1.9988069534301758,
          1.03668212890625,
          -1.029880404472351,
          0.5010689496994019,
          -1.1286088228225708,
          1.5968520641326904,
          -0.6327766180038452,
          0.1062016412615776,
          0.1590680480003357,
          0.9983707070350647,
          -0.9103336930274963,
          -1.7326631546020508,
          -2.1667652130126953,
          -0.5490652322769165,
          0.19988039135932922,
          0.10239517688751221,
          0.20510193705558777,
          1.5427196025848389,
          1.2950679063796997,
          -0.16393090784549713,
          -1.7424789667129517,
          -2.563018321990967,
          1.0057828426361084,
          -1.2893457412719727,
          0.36247697472572327,
          0.09974861145019531,
          -0.7117330431938171,
          -2.1039841175079346,
          0.39643120765686035,
          -0.6020021438598633,
          -0.1681191623210907,
          -1.681319236755371,
          -0.783307671546936,
          -0.6829892992973328,
          3.0578103065490723,
          -1.2369738817214966,
          -0.973650336265564,
          -0.26960933208465576,
          -0.46898794174194336,
          -2.7539119720458984,
          0.015988394618034363,
          -0.386430948972702,
          -0.7168494462966919,
          0.4325158894062042,
          1.6270802021026611,
          -2.244824171066284,
          1.2123829126358032,
          1.1010993719100952,
          -1.5622042417526245,
          1.1365859508514404,
          -4.6377716064453125,
          0.3891890048980713,
          2.643059730529785,
          -1.0915886163711548,
          4.7046098709106445,
          -2.5037877559661865,
          0.04011889547109604,
          2.511988401412964,
          -0.465751051902771,
          -0.9196147918701172,
          1.9382058382034302,
          0.1809367537498474,
          2.3042960166931152,
          2.134308099746704,
          -0.8096866011619568,
          -2.6041464805603027,
          1.3539639711380005,
          -0.20613539218902588,
          -0.588289737701416,
          -0.32431548833847046,
          0.9068648219108582,
          -0.04298410937190056,
          -0.6591751575469971,
          0.559321403503418,
          -0.2860361933708191,
          0.038891326636075974,
          -2.10072922706604,
          0.3032503128051758,
          -0.5086525678634644,
          -2.150315999984741,
          0.2478538602590561,
          2.4656238555908203,
          -0.6079996824264526,
          0.8419782519340515,
          -1.9832477569580078,
          -0.12319999188184738,
          -0.3931299149990082,
          -1.2134068012237549,
          0.24158254265785217,
          1.2944272756576538,
          -0.3911729156970978,
          1.0914186239242554,
          0.47962215542793274,
          -0.8577811121940613,
          1.4587876796722412,
          -1.0676014423370361,
          2.0527613162994385,
          2.185304641723633,
          -2.766507863998413,
          -3.475677728652954,
          -3.019930839538574,
          -0.10274887830018997,
          -0.13249734044075012,
          0.5109094977378845,
          -0.4122035503387451,
          2.6066856384277344,
          -0.5787681937217712,
          -3.737698554992676,
          1.9494543075561523,
          -0.04389256611466408,
          1.0936875343322754,
          -1.6944950819015503,
          -0.47916853427886963,
          -1.6096346378326416,
          -2.2111730575561523,
          0.37981224060058594,
          1.2634817361831665,
          1.1631735563278198,
          0.44200223684310913,
          4.724999904632568,
          3.422255039215088,
          -0.6114817261695862,
          -1.1285563707351685,
          -2.378553867340088,
          -2.4509942531585693,
          -0.6985752582550049,
          -0.8758679628372192,
          -0.6260548233985901,
          -0.8825133442878723,
          -3.1516664028167725,
          2.337916612625122,
          -1.4569532871246338,
          -0.8400473594665527,
          -0.2113194316625595,
          1.2496649026870728,
          -0.9404381513595581,
          -0.2582245469093323,
          -0.9701132774353027,
          -0.43812888860702515,
          1.137188196182251,
          0.2572230398654938,
          -0.7926689982414246,
          -0.356529176235199,
          0.006523404270410538,
          2.1444895267486572,
          1.4233410358428955,
          0.28789404034614563,
          -0.3401050865650177,
          -0.9629607796669006,
          -0.40561529994010925,
          -0.32907843589782715,
          -0.7902821898460388,
          -1.6437625885009766,
          -0.2860422432422638,
          -1.2014755010604858,
          1.1308395862579346,
          -1.0980725288391113,
          0.6585811972618103,
          -0.6495524644851685,
          0.9280668497085571,
          -0.2226884812116623,
          -0.2536032795906067,
          -0.300731360912323,
          -0.5613884925842285,
          -0.6570160388946533,
          1.4336591958999634,
          -1.2101385593414307,
          -0.17408226430416107,
          -0.08651211857795715,
          2.4472548961639404,
          -3.055495262145996,
          -0.5192770957946777,
          1.6750314235687256,
          -1.4055558443069458,
          -1.3928083181381226,
          -3.389047861099243,
          0.5470412969589233,
          -0.6900649070739746,
          -0.15166638791561127,
          2.255220890045166,
          -0.8528093099594116,
          -0.23445278406143188,
          -2.0084407329559326,
          -0.4242803454399109,
          -0.8320562839508057,
          -1.1059304475784302,
          0.177732452750206,
          1.0003516674041748,
          1.2442768812179565,
          0.21385541558265686
        ]
      },
      "inputHidden": {
        "rows": 20,
        "columns": 20,
        "weights": [
          0.3709550201892853,
          -1.160342812538147,
          0.2647877633571625,
          0.5034157633781433,
          0.34751027822494507,
          0.624353289604187,
          -1.1533855199813843,
          0.8695089221000671,
          1.802904486656189,
          -2.418553113937378,
          -0.8005922436714172,
          3.088827133178711,
          -1.7091469764709473,
          -0.41348060965538025,
          -1.7857062816619873,
          -0.4506305754184723,
          3.5822505950927734,
          -1.4449050426483154,
          4.460833549499512,
          -2.2490317821502686,
          -2.49330472946167,
          2.1336750984191895,
          -0.8069385886192322,
          -3.563833713531494,
          -0.7506859302520752,
          -0.1525261104106903,
          0.19940432906150818,
          -0.210245281457901,
          -0.4218828082084656,
          0.04179411008954048,
          -1.9925177097320557,
          1.2568053007125854,
          0.3106737434864044,
          1.060489296913147,
          -2.3540151119232178,
          -2.6252357959747314,
          -2.456972599029541,
          0.058172620832920074,
          0.10536765307188034,
          0.009527798742055893,
          1.16856050491333,
          0.6639325618743896,
          -1.3907525539398193,
          0.5483796000480652,
          -1.8582472801208496,
          0.9736950397491455,
          0.6035094261169434,
          -1.8689985275268555,
          1.7241766452789307,
          -2.475470781326294,
          1.810025930404663,
          1.8336780071258545,
          -1.0352392196655273,
          0.6057730317115784,
          1.3986278772354126,
          1.2604511976242065,
          -0.9158799648284912,
          2.2587451934814453,
          -4.770619869232178,
          -3.651338577270508,
          0.6887820959091187,
          3.2217109203338623,
          -1.7609763145446777,
          -1.7348357439041138,
          -2.165393352508545,
          1.055493712425232,
          -1.446154236793518,
          2.4475185871124268,
          1.1202483177185059,
          -0.9241855144500732,
          -0.26427242159843445,
          -2.6767849922180176,
          2.088286876678467,
          -1.9570461511611938,
          -0.7433558106422424,
          1.7797966003417969,
          1.18983793258667,
          0.866089403629303,
          2.3413689136505127,
          0.0423944853246212,
          2.6727066040039062,
          5.178650379180908,
          -0.8419144749641418,
          0.5153927803039551,
          1.5742590427398682,
          -1.5906625986099243,
          2.8647193908691406,
          -2.882081985473633,
          1.197715163230896,
          0.4192166030406952,
          -1.5545189380645752,
          -1.4040166139602661,
          4.909450054168701,
          3.1719250679016113,
          1.4201759099960327,
          -5.146701335906982,
          -0.6517560482025146,
          2.9601333141326904,
          -0.43854156136512756,
          -3.641925096511841,
          2.2115888595581055,
          -2.0041661262512207,
          0.07979129254817963,
          -0.6729559302330017,
          0.853830873966217,
          2.1067771911621094,
          -1.933885931968689,
          3.8971707820892334,
          -2.3910915851593018,
          3.264728546142578,
          -1.6974886655807495,
          -0.9653417468070984,
          0.924872100353241,
          -0.7410637140274048,
          1.8408633470535278,
          1.5843743085861206,
          -1.2849266529083252,
          0.8519781827926636,
          -2.3046929836273193,
          0.7405266761779785,
          0.049533307552337646,
          0.5866886973381042,
          -0.6780343055725098,
          1.799302339553833,
          6.075466156005859,
          -3.2363927364349365,
          3.4455063343048096,
          -5.671921730041504,
          1.8958457708358765,
          1.397651195526123,
          -0.8953952789306641,
          5.589230537414551,
          -4.0294294357299805,
          -0.6845433115959167,
          -0.7014692425727844,
          -4.970566272735596,
          -1.8651254177093506,
          4.5994954109191895,
          -5.133883953094482,
          -1.6633093357086182,
          0.8702809810638428,
          -0.7865594029426575,
          -0.7158228754997253,
          1.3926175832748413,
          1.8421489000320435,
          -2.001476764678955,
          -3.545480489730835,
          3.4861555099487305,
          -0.03157775104045868,
          1.5866717100143433,
          -2.2296206951141357,
          3.866486072540283,
          1.1796575784683228,
          -0.2400892674922943,
          1.9711982011795044,
          1.094351053237915,
          -0.8604485392570496,
          0.4036749601364136,
          1.2572516202926636,
          0.79633629322052,
          1.390113115310669,
          -0.7062561511993408,
          -0.1553647220134735,
          0.6218246221542358,
          0.5035200715065002,
          -0.3102290630340576,
          -0.2811344861984253,
          -0.9609474539756775,
          0.44496995210647583,
          1.2702778577804565,
          0.04936647415161133,
          0.3745346665382385,
          1.7557647228240967,
          0.07439398765563965,
          -1.0895859003067017,
          -4.0606207847595215,
          -0.3683268427848816,
          0.9972166419029236,
          -1.5243251323699951,
          0.3880031704902649,
          -2.9438207149505615,
          -1.8541218042373657,
          1.8056175708770752,
          0.2415131777524948,
          1.8451372385025024,
          -0.5728636980056763,
          0.753783643245697,
          0.20576748251914978,
          0.5299595594406128,
          1.5892091989517212,
          -0.07606494426727295,
          0.3713844418525696,
          0.7745993733406067,
          -0.347005695104599,
          -2.9828855991363525,
          -0.04370448365807533,
          -0.1195874735713005,
          -1.225770115852356,
          -1.3312944173812866,
          -2.875856399536133,
          1.1826893091201782,
          -3.843106985092163,
          2.6596453189849854,
          1.8591785430908203,
          0.4250735938549042,
          -0.9356405138969421,
          3.3394501209259033,
          0.23194442689418793,
          2.184588670730591,
          0.6257943511009216,
          0.9196364283561707,
          1.8644455671310425,
          -1.5246000289916992,
          -1.9084733724594116,
          0.199265256524086,
          -3.7328901290893555,
          2.1584856510162354,
          2.541916847229004,
          0.7664300203323364,
          -1.0176417827606201,
          -4.638205528259277,
          0.5893172025680542,
          0.05289269611239433,
          -1.6349223852157593,
          2.8607587814331055,
          -0.4282946288585663,
          -0.5004192590713501,
          0.3683677613735199,
          -0.5749794244766235,
          -0.5910093784332275,
          -0.7171705961227417,
          0.6949838995933533,
          -0.06847286969423294,
          2.180734634399414,
          0.4917314052581787,
          1.5917315483093262,
          -3.117534637451172,
          0.2204689085483551,
          -0.5291353464126587,
          2.8803555965423584,
          1.4979047775268555,
          0.6116229295730591,
          -2.0402655601501465,
          -1.4764673709869385,
          1.2411775588989258,
          -1.4545879364013672,
          2.3235931396484375,
          -2.4856462478637695,
          -0.29258474707603455,
          -2.0299553871154785,
          3.87202787399292,
          -1.567042350769043,
          0.14453695714473724,
          -1.7725940942764282,
          0.134325310587883,
          -0.8737939596176147,
          -0.1757742166519165,
          -0.7881696820259094,
          -0.4436352849006653,
          -3.6896770000457764,
          3.6435039043426514,
          1.9829254150390625,
          -3.9922292232513428,
          -1.7887386083602905,
          0.19736447930335999,
          1.1577188968658447,
          -2.2093348503112793,
          -0.6731039881706238,
          -0.08252584934234619,
          -2.6851553916931152,
          0.6963277459144592,
          2.28985333442688,
          1.3007853031158447,
          0.6168849468231201,
          3.9259400367736816,
          -1.021994709968567,
          0.3849985599517822,
          4.1482133865356445,
          -3.464820146560669,
          1.3732576370239258,
          -1.1102845668792725,
          2.227538585662842,
          -2.8312294483184814,
          -1.4183986186981201,
          1.0341014862060547,
          2.5010132789611816,
          1.0666364431381226,
          1.0644291639328003,
          -0.06621970236301422,
          1.7080602645874023,
          -2.861753463745117,
          -2.533463954925537,
          -0.24313490092754364,
          0.39707624912261963,
          0.7298406362533569,
          -3.429732084274292,
          0.2330283671617508,
          2.827895164489746,
          -1.414772391319275,
          -0.8609330058097839,
          -2.3866043090820312,
          0.6513814926147461,
          2.148503303527832,
          0.8475316166877747,
          -1.5592963695526123,
          -0.19572269916534424,
          -5.406421661376953,
          -0.35499370098114014,
          -4.5999755859375,
          4.707685470581055,
          -3.845339775085449,
          -3.918539047241211,
          0.5920630097389221,
          -1.2353954315185547,
          -1.1847255229949951,
          1.034820318222046,
          0.7678215503692627,
          -0.06002229452133179,
          1.7616417407989502,
          3.6071722507476807,
          -0.030163131654262543,
          2.1152408123016357,
          -2.1086580753326416,
          -0.9484112858772278,
          -0.9097146987915039,
          -1.0494884252548218,
          3.138075113296509,
          3.339186668395996,
          -1.2830969095230103,
          -1.1449291706085205,
          0.28075554966926575,
          -3.226804494857788,
          0.15388156473636627,
          -0.8217344284057617,
          -1.7803606986999512,
          4.741939067840576,
          -2.6165759563446045,
          -1.7603256702423096,
          0.269469678401947,
          0.3950066864490509,
          -0.5535061955451965,
          0.8690643906593323,
          0.5548283457756042,
          2.5070767402648926,
          2.2530219554901123,
          1.593518614768982,
          -0.8295643925666809,
          0.005619779694825411,
          1.5182026624679565,
          -0.22670453786849976,
          -3.44730544090271,
          -1.1033228635787964,
          1.2482041120529175,
          -1.5955134630203247,
          3.433781147003174,
          0.7635180950164795,
          1.442592740058899,
          0.7862083911895752,
          0.08452124148607254,
          0.5584455728530884,
          2.155501365661621,
          -1.7522722482681274,
          -4.344445705413818,
          -0.1765095293521881,
          5.148626804351807,
          0.7463083267211914,
          1.301477313041687,
          -4.312772274017334,
          2.149721384048462,
          -8.699980735778809,
          3.195605516433716,
          3.939073324203491,
          6.2119140625,
          1.4704859256744385,
          0.12158467620611191,
          0.08972783386707306,
          -0.5031291246414185,
          4.10590934753418,
          -0.1089160293340683,
          1.2825227975845337,
          -0.8504232168197632,
          0.3821904957294464,
          0.9689691066741943,
          3.078908920288086,
          -2.2088418006896973,
          -3.599146604537964,
          3.545663833618164,
          -3.1009159088134766,
          2.9676077365875244,
          -0.355533242225647,
          2.19671368598938,
          -0.6946293711662292,
          3.07393217086792,
          -0.7081009745597839,
          -0.8637526631355286,
          -1.2436320781707764,
          -0.6305596232414246,
          0.56906658411026,
          0.16852924227714539,
          1.1318331956863403
        ]
      },
      "inputBias": {
        "rows": 20,
        "columns": 1,
        "weights": [
          -0.3931131362915039,
          0.13729074597358704,
          0.9797550439834595,
          -0.1867460310459137,
          -1.9728285074234009,
          -0.3918224573135376,
          -1.6251569986343384,
          -0.38016241788864136,
          -0.29960450530052185,
          -1.260922908782959,
          -0.5553209781646729,
          -0.7940308451652527,
          0.2067161202430725,
          0.7046189904212952,
          -0.37285810708999634,
          -1.636029601097107,
          0.23952893912792206,
          0.04061340540647507,
          -1.360638976097107,
          -0.36276209354400635
        ]
      },
      "forgetMatrix": {
        "rows": 20,
        "columns": 25,
        "weights": [
          2.4744515419006348,
          -0.8040973544120789,
          -0.6948581337928772,
          -1.349579095840454,
          0.2694360911846161,
          -2.288665294647217,
          -0.6843221187591553,
          -0.3060946762561798,
          -1.657100796699524,
          0.1349819004535675,
          -0.5709261298179626,
          0.07552215456962585,
          -0.6328614354133606,
          -0.3300727903842926,
          2.4309918880462646,
          0.870870053768158,
          -1.8739439249038696,
          -2.4430298805236816,
          -0.5485625267028809,
          3.6658196449279785,
          -1.477776050567627,
          0.2740546464920044,
          1.092607021331787,
          -2.818986654281616,
          -0.8920107483863831,
          1.3404698371887207,
          3.5970606803894043,
          0.5389153361320496,
          1.312286376953125,
          -0.9629600048065186,
          0.08627117425203323,
          -0.76712566614151,
          -0.3013959228992462,
          1.0245091915130615,
          -1.3162411451339722,
          0.6445014476776123,
          0.78271484375,
          0.5279943943023682,
          0.7040583491325378,
          0.7856611609458923,
          0.5907041430473328,
          2.167252540588379,
          -0.3690338432788849,
          0.705219566822052,
          -1.7031502723693848,
          0.9270569086074829,
          -1.2247881889343262,
          -1.709160566329956,
          -0.8392778635025024,
          -0.22170482575893402,
          2.0113112926483154,
          -1.530032753944397,
          0.33169791102409363,
          3.611278533935547,
          0.601279079914093,
          1.0323437452316284,
          -2.129622459411621,
          0.7817484140396118,
          -0.04679160192608833,
          -1.8160860538482666,
          0.03459494560956955,
          0.22903434932231903,
          0.8474563956260681,
          0.5555904507637024,
          -1.7454285621643066,
          0.7490569353103638,
          -0.5101951360702515,
          1.6231396198272705,
          -1.8553357124328613,
          -0.4570424556732178,
          -4.292361259460449,
          -0.5356663465499878,
          0.2291950285434723,
          2.4202451705932617,
          -0.04588828608393669,
          2.5791077613830566,
          -2.5738866329193115,
          -2.9270732402801514,
          -1.6473143100738525,
          -1.735325813293457,
          -2.0870602130889893,
          -1.0138425827026367,
          -0.5855258703231812,
          0.9712782502174377,
          1.4565997123718262,
          0.30234771966934204,
          1.191833257675171,
          -1.2190425395965576,
          0.072628915309906,
          1.1566210985183716,
          -0.981284499168396,
          -0.2398006021976471,
          -0.41772517561912537,
          -2.3274354934692383,
          0.8202839493751526,
          -0.6312143206596375,
          2.291069746017456,
          4.097935199737549,
          -0.5234672427177429,
          1.143385410308838,
          2.278512716293335,
          0.3237239122390747,
          -0.533241868019104,
          -0.403201162815094,
          -0.027492132037878036,
          -2.16715407371521,
          -0.47380104660987854,
          0.2343888133764267,
          -1.7921953201293945,
          -0.8553438782691956,
          0.09033815562725067,
          -1.1593027114868164,
          -1.7355353832244873,
          0.5787760615348816,
          -0.16534066200256348,
          1.5746687650680542,
          -1.6683306694030762,
          -1.4293811321258545,
          -1.2863003015518188,
          3.090575695037842,
          -0.5531046390533447,
          -1.6041489839553833,
          0.9238131642341614,
          0.5619474649429321,
          -3.4282069206237793,
          1.3976943492889404,
          -0.34532028436660767,
          -2.282443046569824,
          0.2411254644393921,
          1.4101942777633667,
          -1.6300190687179565,
          0.37852975726127625,
          2.4137825965881348,
          -0.8276680111885071,
          0.34245604276657104,
          -0.1417030543088913,
          -0.5651170611381531,
          0.5112040042877197,
          -2.7556989192962646,
          1.6288195848464966,
          0.5752465128898621,
          -1.6988810300827026,
          -0.8244048953056335,
          -2.2099130153656006,
          2.3507988452911377,
          -0.7668368816375732,
          -1.5654125213623047,
          2.436744213104248,
          -1.0386922359466553,
          -3.3136346340179443,
          -0.392729252576828,
          -1.4092744588851929,
          -0.7026044726371765,
          -0.3403911292552948,
          -0.7400005459785461,
          -1.6626291275024414,
          -3.0124735832214355,
          1.2230862379074097,
          0.4525926411151886,
          1.6960541009902954,
          -0.18765772879123688,
          1.073000431060791,
          0.4727492928504944,
          -0.8932952880859375,
          1.950727105140686,
          0.5644654631614685,
          0.6620898842811584,
          -0.6778907775878906,
          -0.3530464768409729,
          -1.8967891931533813,
          0.4240756034851074,
          -0.9748561382293701,
          0.5206401348114014,
          -0.3752904534339905,
          -0.3359625041484833,
          0.02302967756986618,
          2.519355297088623,
          0.036832891404628754,
          0.9039033651351929,
          -0.9188340902328491,
          3.7539772987365723,
          2.9893078804016113,
          -0.7208577990531921,
          2.522756814956665,
          -1.3611981868743896,
          0.6948545575141907,
          0.9653576016426086,
          2.8349673748016357,
          -0.6660535335540771,
          0.45341455936431885,
          -0.5727295279502869,
          1.3141027688980103,
          -0.9197203516960144,
          2.040112257003784,
          -1.0373766422271729,
          2.4253673553466797,
          1.6552042961120605,
          1.2398478984832764,
          2.141324043273926,
          0.15459011495113373,
          1.3395018577575684,
          -4.19130802154541,
          0.9441193342208862,
          -0.6727179884910583,
          0.3810754120349884,
          -2.303603410720825,
          -1.9285763502120972,
          0.1520741581916809,
          -2.4647793769836426,
          2.328930139541626,
          -1.9461175203323364,
          -1.8038908243179321,
          -0.9152883887290955,
          -2.5710196495056152,
          1.8126120567321777,
          0.02324581705033779,
          -0.2635233402252197,
          -2.388258457183838,
          -2.2182366847991943,
          0.5403266549110413,
          -1.1333558559417725,
          -1.1834564208984375,
          0.0013868247624486685,
          0.003057359717786312,
          -0.9425973892211914,
          1.071199655532837,
          -1.471714973449707,
          -1.3295313119888306,
          -0.6135018467903137,
          -2.933779239654541,
          1.7247653007507324,
          -0.17912493646144867,
          -0.9375771880149841,
          0.4545242190361023,
          -0.09602228552103043,
          1.0243167877197266,
          -1.7228392362594604,
          1.9269531965255737,
          -1.5906670093536377,
          1.6523090600967407,
          1.244584321975708,
          0.890841007232666,
          -0.7994048595428467,
          -1.2436023950576782,
          -2.329146385192871,
          1.9706196784973145,
          -2.0349841117858887,
          0.4213269352912903,
          -2.296804904937744,
          2.1123480796813965,
          -0.9251589179039001,
          -1.188332438468933,
          -2.7968735694885254,
          0.3043464720249176,
          -0.09640723466873169,
          -1.744429111480713,
          1.2307864427566528,
          0.18617630004882812,
          1.9581356048583984,
          -0.28608042001724243,
          1.3083289861679077,
          1.6366416215896606,
          1.183898687362671,
          -2.3125054836273193,
          -0.47593680024147034,
          -1.3459466695785522,
          0.8724520802497864,
          2.611781597137451,
          -2.4740076065063477,
          -0.6571372151374817,
          -1.6407798528671265,
          -1.2868624925613403,
          2.365614652633667,
          -1.1344493627548218,
          1.2874022722244263,
          -0.0976070761680603,
          0.4870048761367798,
          0.66717529296875,
          0.4286588430404663,
          1.0663024187088013,
          -1.0997371673583984,
          0.5792420506477356,
          0.8679181337356567,
          -0.978209376335144,
          -2.64047908782959,
          -1.6313472986221313,
          3.948054313659668,
          -0.846584677696228,
          0.8047930002212524,
          -1.8552459478378296,
          2.2032523155212402,
          1.4714221954345703,
          0.9035360217094421,
          -2.7641966342926025,
          -0.4787435233592987,
          -3.624569892883301,
          -0.8481782674789429,
          -0.8971065282821655,
          0.7353852987289429,
          -1.0613420009613037,
          -0.5372382402420044,
          -0.8878353834152222,
          -1.3560718297958374,
          -0.0665745735168457,
          0.4067760407924652,
          0.7302319407463074,
          -0.42357566952705383,
          -0.36079007387161255,
          0.4384998381137848,
          1.4564781188964844,
          2.2268857955932617,
          2.4068002700805664,
          -0.6631258726119995,
          1.2381882667541504,
          -0.5926889777183533,
          -0.7967056632041931,
          0.269246369600296,
          3.0595006942749023,
          -2.829834461212158,
          0.7792769074440002,
          -0.983505129814148,
          -0.31130674481391907,
          0.9605617523193359,
          -2.6401207447052,
          1.0015735626220703,
          2.4129533767700195,
          0.405237078666687,
          -2.6035094261169434,
          0.8674623966217041,
          -0.2673667371273041,
          1.8672614097595215,
          -0.4493403136730194,
          0.2754865288734436,
          2.7026233673095703,
          -1.7538950443267822,
          1.439802646636963,
          2.3150880336761475,
          2.4230144023895264,
          -0.0041109067387878895,
          0.8866948485374451,
          -1.1188772916793823,
          0.7707637548446655,
          2.347975730895996,
          -0.32305821776390076,
          -1.4290177822113037,
          0.8982996940612793,
          0.030106963589787483,
          2.130850315093994,
          -0.3642757833003998,
          -0.2797125279903412,
          -1.1088746786117554,
          -3.5720794200897217,
          4.19047737121582,
          -0.4409862756729126,
          0.8545241355895996,
          0.1456337869167328,
          -2.621767997741699,
          0.376777321100235,
          -1.6711150407791138,
          0.7295317649841309,
          -1.370015263557434,
          -0.6501083970069885,
          -3.9073894023895264,
          1.2008461952209473,
          1.3089715242385864,
          -1.8061140775680542,
          -0.7003653645515442,
          0.29770997166633606,
          0.7175242900848389,
          0.8725980520248413,
          -2.744734048843384,
          -0.46887269616127014,
          -1.7244619131088257,
          0.4999552071094513,
          -1.0500450134277344,
          1.0873684883117676,
          1.507123351097107,
          -0.2876731753349304,
          0.3475169241428375,
          0.3480527400970459,
          -0.9475439786911011,
          0.6524513959884644,
          -0.4462857246398926,
          1.5183476209640503,
          -0.9547754526138306,
          -0.7094547748565674,
          3.0049033164978027,
          -0.2279013842344284,
          0.27458664774894714,
          -0.1923522651195526,
          1.1343542337417603,
          2.5587143898010254,
          -0.16471515595912933,
          -0.8896632194519043,
          -3.6688878536224365,
          1.1954635381698608,
          -0.2191632241010666,
          0.39069676399230957,
          -0.460816353559494,
          -0.08953633159399033,
          0.038323648273944855,
          1.9390181303024292,
          -3.9846251010894775,
          0.4062494933605194,
          -0.8564494252204895,
          0.7063195705413818,
          1.5789105892181396,
          -1.4727965593338013,
          1.2662285566329956,
          -3.371511459350586,
          -0.2274206578731537,
          2.589582681655884,
          1.2810943126678467,
          -2.403254747390747,
          2.049367666244507,
          1.2513320446014404,
          1.5768823623657227,
          -1.0967735052108765,
          0.18997173011302948,
          -1.5830193758010864,
          -0.5248627662658691,
          -0.5905382633209229,
          2.6212124824523926,
          -0.3923894464969635,
          -2.320420503616333,
          -1.4841614961624146,
          -0.3456195890903473,
          2.876964807510376,
          -1.3420144319534302,
          -0.31536567211151123,
          0.9684853553771973,
          -1.3924061059951782,
          0.47036588191986084,
          1.3166481256484985,
          -0.24039804935455322,
          1.045204997062683,
          -3.030845880508423,
          -0.95136958360672,
          1.939121961593628,
          -2.717437744140625,
          -1.8293931484222412,
          -0.6790204048156738,
          -1.0361576080322266,
          2.7447915077209473,
          -0.8396525382995605,
          1.0875295400619507,
          1.4311021566390991,
          -1.1540415287017822,
          -0.31593090295791626,
          -0.593591034412384,
          2.711381435394287,
          1.6488299369812012,
          -0.6801252961158752,
          0.2996853291988373,
          -1.4730079174041748,
          -0.2014615684747696,
          -0.8951776623725891,
          -0.42894458770751953,
          0.04359292611479759,
          0.16064856946468353,
          0.7158234119415283,
          0.5936519503593445,
          4.519779205322266,
          -0.1697276085615158,
          1.8637757301330566,
          1.668521761894226,
          1.2882544994354248,
          0.23440080881118774,
          -0.9534944295883179,
          -1.9845600128173828,
          1.5707790851593018,
          -0.00259267445653677,
          0.21874266862869263,
          0.2792503535747528,
          0.8119932413101196,
          1.0187453031539917,
          -0.24086840450763702,
          0.4049886465072632,
          1.9002605676651,
          1.1319832801818848,
          0.3836207389831543,
          -1.8034064769744873,
          -1.0602772235870361,
          0.4632548689842224,
          -0.4882338047027588,
          -0.7819933891296387,
          1.026297926902771,
          -1.4223768711090088,
          1.359555959701538,
          -2.890353202819824,
          0.1433737576007843,
          -1.0583299398422241,
          1.931136965751648,
          -2.190718650817871,
          -0.33387404680252075,
          -4.975128173828125,
          -0.4916059076786041,
          -0.13211102783679962,
          -0.19326470792293549,
          -0.8298901915550232
        ]
      },
      "forgetHidden": {
        "rows": 20,
        "columns": 20,
        "weights": [
          -0.8971334099769592,
          6.232635498046875,
          -0.2326064258813858,
          0.4924609065055847,
          2.387003183364868,
          -5.252785682678223,
          2.2763490676879883,
          -1.8007022142410278,
          3.6982946395874023,
          1.0572199821472168,
          3.478440284729004,
          -1.1489838361740112,
          0.4585495591163635,
          0.8403658270835876,
          1.6490041017532349,
          2.165587902069092,
          -2.1891160011291504,
          -2.164560079574585,
          -2.5078539848327637,
          3.3379170894622803,
          2.649395227432251,
          -0.11995261907577515,
          -0.16933532059192657,
          -0.2768478989601135,
          1.337279200553894,
          3.2530081272125244,
          3.630882978439331,
          -6.243701934814453,
          -4.241143703460693,
          -6.135639190673828,
          2.7899279594421387,
          4.5319318771362305,
          -0.9168879389762878,
          1.374314546585083,
          -1.0747013092041016,
          3.234726905822754,
          1.268709421157837,
          3.0547127723693848,
          -1.3648033142089844,
          -4.240029811859131,
          -1.4589306116104126,
          -0.08151651173830032,
          2.967729330062866,
          -0.8503636717796326,
          1.4789859056472778,
          -2.8512516021728516,
          3.596957206726074,
          -1.0017497539520264,
          1.6189098358154297,
          1.7436269521713257,
          -1.6224595308303833,
          -1.3620933294296265,
          0.23522882163524628,
          0.41123759746551514,
          -1.2722132205963135,
          1.9296082258224487,
          -2.066969633102417,
          -0.9953895807266235,
          -1.4936693906784058,
          1.5133213996887207,
          0.8633678555488586,
          -1.086095929145813,
          0.8509365320205688,
          -0.23670828342437744,
          -1.1542049646377563,
          -2.7835257053375244,
          -4.138296604156494,
          -1.494598388671875,
          1.4768617153167725,
          0.36601996421813965,
          0.3871065378189087,
          -0.9071282744407654,
          -0.5061606168746948,
          1.6315189599990845,
          -0.2751232087612152,
          1.8087084293365479,
          0.09550043940544128,
          -3.3423831462860107,
          -0.09719330817461014,
          0.638397216796875,
          0.28771159052848816,
          2.1859028339385986,
          -3.7020795345306396,
          -5.060314655303955,
          -0.907471239566803,
          2.960517644882202,
          2.6347227096557617,
          -1.8411225080490112,
          -2.873905897140503,
          -1.1662811040878296,
          1.8900182247161865,
          2.0498828887939453,
          -1.1664983034133911,
          -3.2136476039886475,
          1.9061181545257568,
          0.28271326422691345,
          0.82241290807724,
          1.505886435508728,
          -0.3613213896751404,
          -2.0567409992218018,
          2.686380386352539,
          2.117596387863159,
          -2.7639224529266357,
          -0.5060035586357117,
          3.294738531112671,
          -1.9174295663833618,
          0.6220693588256836,
          -3.1922779083251953,
          -0.5385732054710388,
          3.373521089553833,
          2.729013681411743,
          -1.0937670469284058,
          1.5878798961639404,
          -1.9922852516174316,
          1.5674189329147339,
          -1.8728524446487427,
          1.33151113986969,
          2.2176878452301025,
          -1.870659589767456,
          -0.5555351972579956,
          -2.5664803981781006,
          -4.2915167808532715,
          3.002591371536255,
          2.2454965114593506,
          -0.32243362069129944,
          0.2665129601955414,
          -3.5104095935821533,
          -0.518602728843689,
          -0.8792829513549805,
          3.9984242916107178,
          -1.3286383152008057,
          0.24725420773029327,
          -2.9575672149658203,
          5.135694980621338,
          -1.5729187726974487,
          0.19063587486743927,
          1.282913327217102,
          -3.5566775798797607,
          1.963599681854248,
          1.037189245223999,
          -0.34819117188453674,
          -1.2886273860931396,
          0.19293764233589172,
          -1.6038613319396973,
          -0.6095011234283447,
          0.42016541957855225,
          1.9042446613311768,
          0.006358847487717867,
          2.3405210971832275,
          -0.4005132019519806,
          0.7536659240722656,
          2.1792311668395996,
          0.23418711125850677,
          2.205605983734131,
          -0.06788598746061325,
          1.7778316736221313,
          2.0822017192840576,
          3.4616456031799316,
          0.5952014923095703,
          -1.1236928701400757,
          1.5333541631698608,
          -1.8146131038665771,
          -0.14329837262630463,
          0.39816412329673767,
          -1.9917221069335938,
          1.9250038862228394,
          2.3397464752197266,
          -1.5071401596069336,
          -0.8259555697441101,
          -1.6029422283172607,
          -2.7636232376098633,
          3.4769675731658936,
          -0.3619316816329956,
          -0.7220358848571777,
          1.1983487606048584,
          1.089147925376892,
          -0.3523730933666229,
          0.21894675493240356,
          3.873692512512207,
          -2.327213764190674,
          -5.636332035064697,
          -2.9427008628845215,
          -0.644930362701416,
          5.88047981262207,
          -4.548655986785889,
          2.0425636768341064,
          -1.5077674388885498,
          0.9182128310203552,
          0.019512653350830078,
          4.024184703826904,
          -6.836989402770996,
          2.1386005878448486,
          -0.21976467967033386,
          -2.0753653049468994,
          -3.476074695587158,
          0.4786980152130127,
          2.7383995056152344,
          -2.198160409927368,
          0.7500610947608948,
          1.1753429174423218,
          -2.4405384063720703,
          2.9673376083374023,
          0.436231404542923,
          1.514029622077942,
          -2.2273430824279785,
          0.6946947574615479,
          -0.2044588178396225,
          -4.508223533630371,
          -2.1871540546417236,
          0.7590584754943848,
          -1.451145052909851,
          4.880774021148682,
          -3.0522372722625732,
          -0.5392785668373108,
          1.0233428478240967,
          -1.4633570909500122,
          -5.1896257400512695,
          0.5181861519813538,
          0.6219140887260437,
          -1.137233853340149,
          -5.271030902862549,
          -3.3700501918792725,
          -1.868304967880249,
          -3.1506850719451904,
          -6.065412521362305,
          -2.334437131881714,
          -4.887078285217285,
          -1.7609915733337402,
          0.16948819160461426,
          -0.9509415030479431,
          3.0558199882507324,
          0.7584176659584045,
          2.988593578338623,
          -2.905439853668213,
          1.846463680267334,
          4.483034133911133,
          -2.368765354156494,
          -1.6576755046844482,
          0.3659490644931793,
          -1.67066490650177,
          -1.087303638458252,
          -0.893389105796814,
          -0.1457269936800003,
          -0.941645085811615,
          -0.5785384178161621,
          -0.3438733220100403,
          -1.4466427564620972,
          -0.5651994347572327,
          -2.3166491985321045,
          -1.299247145652771,
          -2.35333514213562,
          1.207525610923767,
          1.2038509845733643,
          0.14702379703521729,
          0.8425748944282532,
          -0.44306033849716187,
          1.5006177425384521,
          1.5881922245025635,
          2.02825665473938,
          -0.09927796572446823,
          -3.6049506664276123,
          0.525056004524231,
          -0.5484933853149414,
          -1.192604899406433,
          -1.3493447303771973,
          3.3114585876464844,
          -3.271674156188965,
          -1.9954516887664795,
          -1.5411936044692993,
          2.191758155822754,
          -0.5181615352630615,
          -1.0823432207107544,
          -0.041111793369054794,
          -2.8640642166137695,
          3.4691107273101807,
          1.248726725578308,
          2.7628777027130127,
          2.1137945652008057,
          2.3684308528900146,
          0.8335912823677063,
          1.2335063219070435,
          0.14410099387168884,
          1.750112533569336,
          -2.6296348571777344,
          0.8760246634483337,
          -1.7457659244537354,
          1.9362856149673462,
          -3.1311020851135254,
          0.6328346133232117,
          -1.2015151977539062,
          2.819875478744507,
          0.5715335607528687,
          5.498280048370361,
          2.660250425338745,
          -1.1319972276687622,
          0.8179193735122681,
          -2.334754467010498,
          -0.7007901668548584,
          -0.47104570269584656,
          0.7011222243309021,
          0.11720208823680878,
          -1.6854795217514038,
          -1.3512468338012695,
          0.523211658000946,
          -0.09262853115797043,
          2.584953784942627,
          0.05037930980324745,
          -1.8182860612869263,
          0.4518803656101227,
          -2.3683323860168457,
          4.84465217590332,
          1.3070324659347534,
          2.1800827980041504,
          -2.8346493244171143,
          -0.483547180891037,
          -1.3170720338821411,
          0.8584164977073669,
          0.026825500652194023,
          -3.340806484222412,
          -0.24595549702644348,
          -1.340598225593567,
          1.83108389377594,
          -3.0231804847717285,
          1.6740623712539673,
          1.0018417835235596,
          2.138028383255005,
          0.14483776688575745,
          2.064020872116089,
          -2.1370038986206055,
          0.5721817016601562,
          -7.01645040512085,
          1.8880470991134644,
          9.340895652770996,
          0.10446960479021072,
          0.5034591555595398,
          0.010269945487380028,
          0.6838086247444153,
          1.325316071510315,
          -0.6136402487754822,
          -0.5259502530097961,
          -0.6383690237998962,
          -4.383239269256592,
          3.110872507095337,
          -0.2557770013809204,
          0.22852343320846558,
          -3.5108540058135986,
          0.3963783383369446,
          -2.6024248600006104,
          4.2531538009643555,
          -0.1868722289800644,
          0.6653198599815369,
          -0.12290769070386887,
          2.884922504425049,
          -1.5083125829696655,
          -3.3487703800201416,
          -0.08472815901041031,
          -1.8321746587753296,
          -0.6343315243721008,
          -4.180426597595215,
          1.8742693662643433,
          1.604964017868042,
          0.2500695586204529,
          -0.032646022737026215,
          -1.8040657043457031,
          -0.12878857553005219,
          0.8425689339637756,
          -0.8886381387710571,
          -0.168293759226799,
          -0.26885634660720825,
          -0.9117130637168884,
          2.4842584133148193,
          1.2299808263778687,
          -0.8008307218551636,
          -1.2446022033691406,
          0.5691882371902466,
          0.16169071197509766,
          -1.5181421041488647,
          -1.0637296438217163,
          -0.6218162178993225,
          -2.096447706222534,
          0.6943395733833313,
          2.6923205852508545,
          -0.46969860792160034,
          0.4346253275871277,
          -0.9253343343734741,
          -2.9252092838287354,
          -0.7927424311637878,
          0.03826965391635895,
          -0.9516603946685791,
          -0.3504999279975891,
          -4.299699783325195,
          -2.274374008178711,
          0.0898842066526413,
          -1.3102506399154663,
          0.44144874811172485,
          0.6121047139167786,
          -1.87763512134552,
          0.33632296323776245,
          2.460206985473633,
          2.5696723461151123
        ]
      },
      "forgetBias": {
        "rows": 20,
        "columns": 1,
        "weights": [
          0,
          0,
          0,
          0,
          0,
          0,
          0,
          0,
          0,
          0,
          0,
          0,
          0,
          0,
          0,
          0,
          0,
          0,
          0,
          0
        ]
      },
      "outputMatrix": {
        "rows": 20,
        "columns": 25,
        "weights": [
          2.6029348373413086,
          -0.0670960322022438,
          -1.3778146505355835,
          -0.6674454808235168,
          -3.1159579753875732,
          1.1536202430725098,
          2.0273313522338867,
          -0.15793447196483612,
          0.033421874046325684,
          1.1823976039886475,
          4.9861674308776855,
          -2.029416799545288,
          1.404579997062683,
          -1.7192347049713135,
          0.6157592535018921,
          -1.7196093797683716,
          0.8304672241210938,
          -0.5750260949134827,
          0.5471695065498352,
          1.2623745203018188,
          2.087803840637207,
          0.8034015893936157,
          1.0604323148727417,
          -0.05230444297194481,
          2.039123058319092,
          0.6989712715148926,
          -1.0385686159133911,
          -1.185115098953247,
          -2.7196598052978516,
          0.5902119874954224,
          -0.24400226771831512,
          3.8192026615142822,
          -1.0058294534683228,
          0.7812517881393433,
          -2.118755578994751,
          0.8618786334991455,
          2.3294076919555664,
          0.7994451522827148,
          0.16632550954818726,
          -1.274518370628357,
          2.4431591033935547,
          -0.7826516628265381,
          0.8219788670539856,
          -1.1039212942123413,
          0.282249391078949,
          1.6926541328430176,
          -1.1277695894241333,
          1.8373833894729614,
          -0.867256760597229,
          1.3402698040008545,
          3.4046871662139893,
          2.5036540031433105,
          -1.1910665035247803,
          0.4427829086780548,
          0.6988890767097473,
          1.025734543800354,
          4.360846996307373,
          -2.339423179626465,
          1.1412463188171387,
          -2.4139962196350098,
          -0.588727593421936,
          -0.5460981130599976,
          3.7270922660827637,
          -1.9581365585327148,
          -0.09347067773342133,
          -0.47310101985931396,
          1.0125452280044556,
          -1.2477046251296997,
          -1.7056175470352173,
          1.3606197834014893,
          1.936068058013916,
          1.0899264812469482,
          2.703568935394287,
          2.5917742252349854,
          2.5454025268554688,
          0.8053557276725769,
          2.4328107833862305,
          0.6027693748474121,
          -1.20310640335083,
          0.29318568110466003,
          0.26081597805023193,
          -0.36971133947372437,
          0.065442755818367,
          0.21384455263614655,
          -0.764962375164032,
          1.4716341495513916,
          1.37109375,
          0.42093604803085327,
          2.685955047607422,
          0.22457440197467804,
          -0.9899481534957886,
          1.7138700485229492,
          -1.6759388446807861,
          -0.35752812027931213,
          0.19009573757648468,
          0.8535535931587219,
          0.07168126106262207,
          0.006849771831184626,
          0.7133634090423584,
          -1.05051589012146,
          0.04224956035614014,
          0.06696690618991852,
          -2.388484001159668,
          -0.35249200463294983,
          0.9837886691093445,
          1.3553836345672607,
          -2.1638753414154053,
          -0.6700413823127747,
          -0.6091988682746887,
          1.2162357568740845,
          0.32101669907569885,
          -0.7270669341087341,
          -1.409864902496338,
          -1.8285951614379883,
          -0.735711395740509,
          0.2176159918308258,
          -1.342397928237915,
          -0.9613364934921265,
          -1.8886011838912964,
          -0.8608528971672058,
          -1.7096909284591675,
          -0.8483841419219971,
          1.5489484071731567,
          -0.7549182176589966,
          0.35185542702674866,
          -0.17561601102352142,
          -2.0989484786987305,
          -0.8005052208900452,
          -1.6268013715744019,
          3.16776967048645,
          1.1327441930770874,
          -0.9860462546348572,
          -1.892933964729309,
          -2.011176586151123,
          -1.0532504320144653,
          -4.212399005889893,
          0.4196823239326477,
          -3.7750346660614014,
          -1.309718370437622,
          -0.3534325659275055,
          0.6693540215492249,
          -3.3817076683044434,
          -4.186893939971924,
          -1.0756982564926147,
          -0.44482138752937317,
          -2.7897918224334717,
          1.444599986076355,
          1.598081350326538,
          -0.5333627462387085,
          -1.376829981803894,
          -1.438658356666565,
          0.967340886592865,
          -0.8124336004257202,
          1.7911463975906372,
          0.08819200098514557,
          0.2845929265022278,
          0.6660740375518799,
          -1.1186076402664185,
          1.8271689414978027,
          -0.8219068646430969,
          0.021069958806037903,
          4.123508453369141,
          -1.6398617029190063,
          0.1526837795972824,
          -1.4146167039871216,
          -0.6476737856864929,
          1.2168127298355103,
          3.264803409576416,
          0.9896247386932373,
          -0.6245676279067993,
          -1.054157018661499,
          2.111278772354126,
          -0.3640432357788086,
          1.760770559310913,
          0.15313297510147095,
          -2.6336095333099365,
          -0.37751924991607666,
          1.5841389894485474,
          0.12450633943080902,
          -2.2173142433166504,
          1.9226256608963013,
          0.609346330165863,
          -0.7881916761398315,
          -0.6681862473487854,
          1.1049067974090576,
          0.6611229777336121,
          -2.3350462913513184,
          0.5805350542068481,
          -1.9850199222564697,
          -1.9853726625442505,
          -1.1726256608963013,
          0.4973735511302948,
          0.011802390217781067,
          1.6191121339797974,
          0.32193809747695923,
          -0.7602580189704895,
          -0.7543901801109314,
          -4.2828264236450195,
          1.2736889123916626,
          0.3731052279472351,
          -2.233907461166382,
          1.86558997631073,
          -2.298689842224121,
          0.6643590331077576,
          -1.1501946449279785,
          -0.010084218345582485,
          3.6867308616638184,
          -0.12720459699630737,
          2.480994939804077,
          -0.394778847694397,
          0.48471108078956604,
          0.03693222627043724,
          -0.3709279000759125,
          0.4874661862850189,
          -1.4856797456741333,
          2.9483091831207275,
          0.4413684904575348,
          0.437825083732605,
          -1.948543667793274,
          -2.9572222232818604,
          -1.0837899446487427,
          0.27924105525016785,
          -0.616217851638794,
          -3.369577407836914,
          -0.8132104873657227,
          -1.7801982164382935,
          -0.3286370635032654,
          -0.6493691205978394,
          -0.4710797369480133,
          -2.612105131149292,
          0.7483076453208923,
          -0.5296252369880676,
          0.24458475410938263,
          1.3321577310562134,
          1.7650396823883057,
          -0.7803483009338379,
          0.29059386253356934,
          2.4342129230499268,
          -0.6404014229774475,
          2.7825825214385986,
          1.0796499252319336,
          3.392096996307373,
          2.402345895767212,
          -0.695529043674469,
          -3.866319179534912,
          0.6136404275894165,
          -0.3401122987270355,
          -0.832990825176239,
          -1.1351674795150757,
          2.874782085418701,
          -0.45114099979400635,
          -0.8287941217422485,
          -0.16253340244293213,
          1.563228964805603,
          -1.178339958190918,
          0.47239089012145996,
          2.043750047683716,
          -0.400358110666275,
          1.3125368356704712,
          0.6148619055747986,
          2.572957754135132,
          -0.001876325928606093,
          1.4806876182556152,
          -0.2997260093688965,
          0.06877613067626953,
          -2.385293483734131,
          4.413563251495361,
          1.674973964691162,
          0.522702693939209,
          -1.2365096807479858,
          2.5710091590881348,
          0.6015382409095764,
          -0.5486810803413391,
          1.0551644563674927,
          2.893984794616699,
          -0.38462093472480774,
          0.13448907434940338,
          -1.3174583911895752,
          -0.274665504693985,
          -3.5132644176483154,
          0.19388370215892792,
          -0.4980173408985138,
          3.3372368812561035,
          1.5586894750595093,
          -0.2631549537181854,
          1.8175612688064575,
          3.833845853805542,
          2.619678258895874,
          1.4703774452209473,
          1.9930181503295898,
          0.783942461013794,
          0.4887482821941376,
          1.5110503435134888,
          -1.0295706987380981,
          0.005300895310938358,
          -1.071527123451233,
          -0.888780951499939,
          0.3636085093021393,
          -2.0740394592285156,
          -1.0095758438110352,
          -2.0947318077087402,
          0.9789295792579651,
          0.026217639446258545,
          -2.5399351119995117,
          -0.7577092051506042,
          -0.9984837174415588,
          2.5687339305877686,
          -0.9433792233467102,
          0.7588518261909485,
          -1.6548861265182495,
          -0.09999751299619675,
          0.9715993404388428,
          1.2171721458435059,
          2.6296932697296143,
          -2.455993175506592,
          -1.7234474420547485,
          0.696080207824707,
          -0.7212891578674316,
          1.8079464435577393,
          0.5134352445602417,
          0.24613074958324432,
          3.2434592247009277,
          -0.07943375408649445,
          -0.03387574478983879,
          -0.5951398015022278,
          -0.1558208465576172,
          0.8847405910491943,
          -5.483548641204834,
          -0.6610530018806458,
          1.5904176235198975,
          1.8535066843032837,
          -1.1034343242645264,
          2.1197550296783447,
          -1.535122275352478,
          0.6968536376953125,
          -0.9600620865821838,
          3.102874994277954,
          -0.807938277721405,
          -0.5284213423728943,
          -0.05200988054275513,
          -0.2208188772201538,
          -0.8475334048271179,
          -2.4608781337738037,
          -0.39055877923965454,
          -0.16926893591880798,
          1.2859820127487183,
          0.04122510552406311,
          3.3503024578094482,
          -1.3127557039260864,
          -2.0965211391448975,
          1.5478709936141968,
          1.2048290967941284,
          -0.5111680030822754,
          1.1096049547195435,
          0.7024463415145874,
          -1.3682143688201904,
          3.7068471908569336,
          0.1697022169828415,
          0.2213665097951889,
          -1.449657678604126,
          -3.683452606201172,
          2.0567994117736816,
          0.24715368449687958,
          -0.678306519985199,
          1.5750312805175781,
          0.8813958764076233,
          -1.3675726652145386,
          3.1025736331939697,
          -1.3980882167816162,
          -1.6669201850891113,
          0.9879090785980225,
          -0.9988610744476318,
          2.034144639968872,
          1.6106832027435303,
          -0.4301396310329437,
          -0.32948920130729675,
          0.7289727926254272,
          -1.646132230758667,
          0.6978797912597656,
          -0.9460676312446594,
          -0.2743297517299652,
          -1.0923353433609009,
          0.44264858961105347,
          1.1013301610946655,
          0.15031932294368744,
          1.6676583290100098,
          0.34275221824645996,
          -0.3666798770427704,
          0.03186297416687012,
          -1.282997488975525,
          -1.1363041400909424,
          -0.10398811846971512,
          -0.5415777564048767,
          -0.6824612021446228,
          -1.038957118988037,
          -0.10214842855930328,
          0.09100257605314255,
          -0.5088492631912231,
          0.13330979645252228,
          0.8377605080604553,
          3.4117963314056396,
          -0.7938252687454224,
          -2.7419731616973877,
          2.3880975246429443,
          0.5232009887695312,
          -0.9004954099655151,
          1.9609013795852661,
          1.982410192489624,
          0.13651861250400543,
          -0.8758161067962646,
          -1.9536776542663574,
          -1.0476679801940918,
          3.7014403343200684,
          -1.5048705339431763,
          -1.9224344491958618,
          -2.4308207035064697,
          0.5247619152069092,
          1.1114532947540283,
          0.520984411239624,
          -0.40716275572776794,
          1.8696351051330566,
          1.0408117771148682,
          1.565370798110962,
          3.3889758586883545,
          -2.5137522220611572,
          2.065561056137085,
          2.000283718109131,
          -0.7440715432167053,
          3.1824722290039062,
          2.0279979705810547,
          1.9485021829605103,
          2.385028600692749,
          -0.7622987031936646,
          -0.013469287194311619,
          -1.505570888519287,
          -2.0603342056274414,
          -0.9212247133255005,
          0.9195960760116577,
          -3.345229387283325,
          -1.4599617719650269,
          0.5133258104324341,
          -0.950383186340332,
          2.0141332149505615,
          0.8053454160690308,
          -0.7400054335594177,
          -0.2399429976940155,
          -1.2641124725341797,
          0.5645914673805237,
          2.8064355850219727,
          1.0603854656219482,
          -3.1375644207000732,
          -2.1745035648345947,
          -1.9636852741241455,
          -2.3861677646636963,
          -0.6484631896018982,
          0.6268831491470337,
          1.1697533130645752,
          -2.1481783390045166,
          0.6142991185188293,
          2.4107866287231445,
          0.7238966822624207,
          -1.6520909070968628,
          -4.029696464538574,
          0.27691715955734253,
          -1.7397266626358032,
          -0.42362460494041443,
          -0.5292879939079285,
          -0.9458203911781311,
          -0.1514940708875656,
          1.2250502109527588,
          -3.895521879196167,
          1.5086874961853027,
          0.6095364689826965,
          -1.4840760231018066,
          -0.8832046985626221,
          0.9131191968917847,
          -2.849135637283325,
          -1.0193458795547485,
          -1.7700423002243042,
          1.392966389656067,
          0.7532355785369873,
          -0.3807051181793213,
          -0.08618073910474777,
          -0.1776488870382309,
          0.9935881495475769,
          0.20260775089263916,
          2.8360650539398193,
          0.11212610453367233,
          1.5416526794433594,
          -0.06119997426867485,
          0.6636538505554199,
          -1.1656394004821777,
          -0.6589990258216858,
          -3.751753330230713,
          0.24135734140872955,
          -0.11210202425718307,
          0.8671069741249084,
          0.2240300327539444,
          -1.5009468793869019,
          2.9873290061950684
        ]
      },
      "outputHidden": {
        "rows": 20,
        "columns": 20,
        "weights": [
          -0.18933717906475067,
          0.38610130548477173,
          1.7559326887130737,
          0.9018499851226807,
          2.7880513668060303,
          -2.7538280487060547,
          4.974733829498291,
          -1.0296803712844849,
          0.2581084668636322,
          -0.8174930214881897,
          3.501326084136963,
          1.1549099683761597,
          -1.6829668283462524,
          -4.437371730804443,
          -2.919124126434326,
          -3.3582184314727783,
          -1.2701975107192993,
          3.3187074661254883,
          -5.275393486022949,
          -0.07506396621465683,
          -1.5413872003555298,
          0.2770601212978363,
          -2.88128399848938,
          -6.7316741943359375,
          -2.3849189281463623,
          1.0813469886779785,
          0.2175142467021942,
          6.723506927490234,
          -4.524380683898926,
          2.228017568588257,
          -5.943795204162598,
          -4.567995071411133,
          5.990407943725586,
          -0.9748274683952332,
          -0.5847536325454712,
          0.554867148399353,
          2.497534990310669,
          -1.1372030973434448,
          -0.9901966452598572,
          -2.520799398422241,
          -1.2470296621322632,
          0.3994993269443512,
          0.18643516302108765,
          0.5957209467887878,
          0.6612849831581116,
          0.2494833618402481,
          1.246740460395813,
          -0.3146597445011139,
          -0.7012176513671875,
          -2.9791808128356934,
          1.4415043592453003,
          0.2855939567089081,
          1.2859690189361572,
          1.3516499996185303,
          -1.9606126546859741,
          1.8713219165802002,
          -3.935774803161621,
          -2.674934148788452,
          -0.5891470313072205,
          -1.926171898841858,
          3.0691819190979004,
          -4.049163818359375,
          0.19809472560882568,
          1.9115443229675293,
          0.7289000153541565,
          -0.4190851151943207,
          -2.408330202102661,
          -0.9636374115943909,
          3.9476988315582275,
          1.3403693437576294,
          0.28955134749412537,
          -1.6920136213302612,
          6.504704475402832,
          0.06812253594398499,
          0.3228222131729126,
          1.50246262550354,
          -1.7233577966690063,
          2.164539098739624,
          -1.4541597366333008,
          -5.071600437164307,
          4.473291873931885,
          6.677091598510742,
          -7.777588367462158,
          -0.7988274693489075,
          3.36730694770813,
          1.8565939664840698,
          1.8577020168304443,
          -2.924800395965576,
          -1.7996299266815186,
          -3.2890701293945312,
          1.2602359056472778,
          0.6954091787338257,
          3.5543620586395264,
          -4.295236587524414,
          2.4423253536224365,
          -4.393115043640137,
          -0.23321719467639923,
          3.8117451667785645,
          -5.716990947723389,
          -0.9582234025001526,
          2.859194278717041,
          0.6264227032661438,
          0.4390500485897064,
          -3.357177972793579,
          -0.7600674629211426,
          -2.3874154090881348,
          -0.21292681992053986,
          -2.578137159347534,
          0.3424232006072998,
          -1.0765773057937622,
          0.7256190776824951,
          -4.4786295890808105,
          -0.4634215533733368,
          1.8887410163879395,
          -0.01369784027338028,
          1.634405255317688,
          -1.5340290069580078,
          0.7728608250617981,
          -2.863858461380005,
          1.672587513923645,
          0.3251612186431885,
          -3.077537775039673,
          1.5362173318862915,
          -0.8946770429611206,
          1.612549901008606,
          -3.697880268096924,
          -0.551494300365448,
          0.22116397321224213,
          -2.3704326152801514,
          0.06995145976543427,
          1.3746806383132935,
          0.3881262540817261,
          -1.649585247039795,
          1.8386774063110352,
          -1.25784432888031,
          2.229616403579712,
          -1.0850623846054077,
          0.025932593271136284,
          -2.7885565757751465,
          2.9257631301879883,
          -3.0357396602630615,
          -3.012457847595215,
          2.5965802669525146,
          -1.673027753829956,
          -1.3893450498580933,
          -2.133382558822632,
          2.3956079483032227,
          -6.415178298950195,
          0.649006187915802,
          1.1732990741729736,
          -0.18901577591896057,
          2.4632554054260254,
          -3.8876149654388428,
          0.3323582112789154,
          -4.26851224899292,
          -0.40882423520088196,
          -2.989272117614746,
          1.353780746459961,
          1.7411810159683228,
          -0.9908998012542725,
          -0.5822283625602722,
          -1.5213600397109985,
          4.249571323394775,
          4.364462852478027,
          1.1258318424224854,
          -1.2018816471099854,
          -1.842467188835144,
          0.4181860089302063,
          0.05994604900479317,
          1.9315381050109863,
          0.5731865763664246,
          -2.7316689491271973,
          -0.7443774342536926,
          -2.1215615272521973,
          -1.4600069522857666,
          -1.9756544828414917,
          -1.1541050672531128,
          -0.4009915590286255,
          -0.21882732212543488,
          -0.35148292779922485,
          -0.7199293971061707,
          0.7282729148864746,
          1.6692837476730347,
          2.2184956073760986,
          -0.6860153675079346,
          2.621320962905884,
          -2.1863555908203125,
          2.016490936279297,
          0.2501223385334015,
          0.4459337294101715,
          -2.210451126098633,
          -0.1301317662000656,
          2.4349312782287598,
          -0.18416659533977509,
          -2.425513744354248,
          -0.500266969203949,
          2.316190242767334,
          0.4838567078113556,
          0.6710808277130127,
          -3.9330968856811523,
          -1.947103500366211,
          5.0815887451171875,
          -2.0069010257720947,
          1.3439137935638428,
          2.783998727798462,
          1.6971895694732666,
          0.09956374764442444,
          0.14366593956947327,
          -2.469881296157837,
          1.8790218830108643,
          1.2476930618286133,
          -0.8294082880020142,
          0.27051037549972534,
          0.7382197380065918,
          0.34196439385414124,
          -2.6813719272613525,
          2.073046922683716,
          0.8803902864456177,
          -1.7805876731872559,
          -2.8897671699523926,
          2.253909111022949,
          -1.7547502517700195,
          2.046055555343628,
          -1.7942314147949219,
          1.3771635293960571,
          1.8589969873428345,
          0.2344328612089157,
          -0.9261796474456787,
          2.6173388957977295,
          -1.9671921730041504,
          0.24227942526340485,
          1.761810541152954,
          1.1065744161605835,
          -2.3874926567077637,
          3.073052406311035,
          -1.5543360710144043,
          0.9713382124900818,
          4.508511066436768,
          1.0285847187042236,
          -1.717658281326294,
          0.14906585216522217,
          -2.0017149448394775,
          4.697911739349365,
          -1.701682448387146,
          0.5774280428886414,
          -0.2531512379646301,
          1.5890930891036987,
          2.393904447555542,
          2.0339903831481934,
          -0.6894395351409912,
          -0.8636459708213806,
          -1.89617919921875,
          0.9694796204566956,
          -0.35199031233787537,
          0.9276596903800964,
          7.596495151519775,
          -7.151801586151123,
          2.1264400482177734,
          -0.3875029385089874,
          1.0753341913223267,
          -1.4788787364959717,
          -1.5430904626846313,
          -5.134929180145264,
          -2.894179582595825,
          1.5521390438079834,
          2.5422110557556152,
          -1.6359751224517822,
          -1.0551471710205078,
          -2.3875718116760254,
          -1.1775293350219727,
          -3.5661404132843018,
          4.414096355438232,
          2.9872686862945557,
          2.580477476119995,
          1.2270963191986084,
          -0.36543935537338257,
          2.6056582927703857,
          3.4672162532806396,
          -0.5541352033615112,
          -3.12160062789917,
          3.229140520095825,
          1.7797229290008545,
          -1.9915122985839844,
          -1.5196115970611572,
          1.7884012460708618,
          -0.11857227981090546,
          -3.4394168853759766,
          1.2178089618682861,
          -2.3832547664642334,
          -0.5516599416732788,
          -5.491305828094482,
          -3.527918577194214,
          -2.711719274520874,
          4.002318382263184,
          -2.3259387016296387,
